tree
version=v4
num_class=1
num_tree_per_iteration=1
label_index=0
max_feature_idx=83
objective=regression
feature_names=Column_0 Column_1 Column_2 Column_3 Column_4 Column_5 Column_6 Column_7 Column_8 Column_9 Column_10 Column_11 Column_12 Column_13 Column_14 Column_15 Column_16 Column_17 Column_18 Column_19 Column_20 Column_21 Column_22 Column_23 Column_24 Column_25 Column_26 Column_27 Column_28 Column_29 Column_30 Column_31 Column_32 Column_33 Column_34 Column_35 Column_36 Column_37 Column_38 Column_39 Column_40 Column_41 Column_42 Column_43 Column_44 Column_45 Column_46 Column_47 Column_48 Column_49 Column_50 Column_51 Column_52 Column_53 Column_54 Column_55 Column_56 Column_57 Column_58 Column_59 Column_60 Column_61 Column_62 Column_63 Column_64 Column_65 Column_66 Column_67 Column_68 Column_69 Column_70 Column_71 Column_72 Column_73 Column_74 Column_75 Column_76 Column_77 Column_78 Column_79 Column_80 Column_81 Column_82 Column_83
feature_infos=[1:4] [0:83] [0:213.90000000000001] [0:166.69999999999999] [0:84] [0:130.09999999999999] [0:1589.0999999999999] [0:126.39] [0:130.56] [0:36.259999999999998] [0:206] [0:304.80000000000001] [0:428.19999999999999] [0:198.59999999999999] [0:330.10000000000002] [0:384.89999999999998] [0:110.90000000000001] [0:122] [0:163.09999999999999] [0:130.09999999999999] [0:151] [0:275.10000000000002] [0:77.319999999999993] [0:77.319999999999993] [0:81.480000000000004] [0:1882.7] [0:2708.3000000000002] [0:4667.8999999999996] [0:83] [0:206] [0:198.59999999999999] [0:110.90000000000001] [0:130.09999999999999] [0:77.319999999999993] [0:23] [0:5] [10:36] [0:1] [0:1] [1:5] [12:36] [14:37] [3.8999999999999999:6.5] [0:15] [0:1] [90:150] [60:90] [0:6] [0:2] [0:2] [0:2] [1:2] [0:1] [0:1] [0:1] [0:1] [0:1] [23:42] [156:179] [43:116] [16.300000000000001:45.270000000000003] [1:3] [1:3] [1:3] [1:3] [1:3] [1:3] [1:3] [1:3] [3.8500000000000001:7.3499999999999996] [0:5] [4.4000000000000004:5.7999999999999998] [22.780000000000001:330] [2.7599999999999998:144.34999999999999] [150:242] [0.01:0.63] [4.04:11.460000000000001] [0.72999999999999998:4.3499999999999996] [0.87:3.4399999999999999] [0.33489999999999998:1.9954000000000001] [1.7304999999999999:7.9181999999999997] [0:1] [0:1] [0:26]
tree_sizes=721 761 763 744 762 851 744 761 762 757 744 744 768 758 767 762 851 853 746 760 848 763 854 850 830 851 850 756 764 852 851 851 848 834 850 854 849 740 850 852 852 760 848 847 767 851 849 827 767 826 847 767 849 849 767 844 836 768 850 857 765 849 768 847 832 763 848 765 845 768 827 849 766 848 764 845 763 847 761 850 767 848 846 747 821 765 851 762 831 760 846 846 848 762 738 846 761 851 745 825 830 742 744 808 848 764 766 845 832 764 767 839 768 848 770 849 773 840 773 839 845 773 768 841 840 766 767 841 842 771 819 829 824 771 841 767 842 841 743 750 763 762 762 765 764 819 756 763 816 849 818 762 765 820 761 840 831 850 759 818 848 738 821 763 738 844 738 850 763 735 792 818 761 764 757 844 762 845 830 855 763 832 849 764 851 852 766 850 765 828 763 760 852 827 762 838 852 741 829 761 848 826 765 833 831 854 828 826 766 843 831 761 825 827 825 744 812 848 766 835 811 855 854 846 846 838 851 830 850 768 844 830 835 744 827 851 854 828 846 850 833 850 839 830 853 814 852 737 849 852 843 809 853 854 852 839 847 743 847 848 851 832 839 842 848 856 851 744 854 832 838 846 850 806 764 854 761 842 855 822 835 835 833 836 814 831 833 833 834 830 829 835 834 824 834 835 815 835 813 830 822 818 839 745 820 795 745 808 789 809 834 794 745 821 812 746 821 810 827 848 747 796 819 827 745 795 819 828 827 809 726 813 824 743 820 813 801 745 811 844 723 815 809 826 806 845 748 807 817 826 782 807 747 826 812 751 818 808 818 827 808 803 751 789 807 818 750 788 817 805 822 752 830 805 819 814 833 723 807 852 817 823 812 805 725 815 820 804 835 806 725 818 854 808 725 818 808 828 806 804 834 723 823 819 790 825 636 852 828 637 820 805 806 725 827 807 841 807 792 826 830 853 831 857 835 856 832 856 831 833 835 833 857 834 853 833 834 851 835 807 854 831 834 832 835 833 861 832 834 834 835 830 812 830 834 834 834 832 826 851 832 832 830 851 855 833 822 831 813 833 832 835 822 830 834 814 815 811 820 836 834 812 804 853 814 829 852 851 833 825 832 836 829 836 832 837 836 853 831 815 837 834 844 835 836 747 810 834 837 764 837 746 847 843 743 811 747 843 835 834 851 744 840 834 765 834 842 746 849 839 829 810 766 817 836 798 842 813 834 765 810 808 807 830 705 838 764 840 834 808 833 810 833 761 839 808 704 843 762 811 828 834 833 857 834 830 835 601 852 834 601 853 835 597 855 599 834 599 829 573 856 849 850 834 576 832 847 835 596 844 848 811 837 576 573 836 832 598 850 856 825 833 573 829 575 854 858 843 551 847 834 599 829 836 573 855 825 850 575 855 831 848 595 835 595 833 825 848 849 856 551 824 550 824 858 825 601 836 837 551 787 829 824 788 552 809 578 846 853 788 847 833 852 700 551 848 844 851 576 827 829 787 813 574 828 806 789 578 812 769 698 827 828 576 830 835 696 838 575 768 723 820 719 746 826 575 827 826 700 822 858 577 830 825 826 830 722 595 783 850 762 795 841 839 764 810 836 743 809 747 859 857 763 839 767 830 780 768 840 765 786 766 839 764 839 767 840 808 775 837 825 781 861 802 823 831 822 801 809 809 803 789 839 822 767 809 813 811 804 840 812 807 815 809 841 809 765 811 815 832 806 804 812 834 833 769 838 768 810 815 832 854 765 811 835 768 830 833 767 803 809 808 808 765 766 813 838 803 762 836 768 745 816 812 766 828 805 810 766 817 811 819 767 861 806 806 763 832 778 831 765 837 766 819 803 831 835 832 834 766 839 831 815 851 767 837 830 850 837 595 817 837 768 777 590 832 839 766 837 741 722 805 825 840 755 842 817 817 780 751 807 805 819 820 807 818 806 806 808 821 816 854 803 853 827 827 822 802 806 855 823 836 804 828 800 855 824 843 827 819 849 807 856 821 851 818 761 802 856 848 803 835 804 846 818 855 806 783 853 857 830 829 806 857 853 806 857 817 774 804 760 859 804 856 752 637 850 803 833 640 806 853 837 806 855 753 703 856 658 858 701 638 845 641 702 849 750 851 822 807 855 802 703 640 800 745 595 660 816 834 750 778 594 838 742 804 638 746 811 593 856 753 722 844 724 751 800 638 597 657 835 832 596 745 694 658 597 749 731 657 741 745 745 743 744 744 743 827 743 831 812 744 791 828 830 850 809 766 830 852 832 850 812 766 852 833 811 754 791 837 812 850 751 835 788 833 829 836 807 742 810 753 834 853 853 629 814 627 629 839 833 630 812 628 841 832 750 626 628 815 838 630 842 631 842 629 839 803 627 753 629 755 843 841 628 843 631 847 629 839 846 754 629 858 629 800 841 631 754 770 859 844 630 857 627 861 840 858 823 860 628 821 770 630 843 840 842 841 857 633 841 821 844 820 857 630 778 830 630 749 844 744 649 856 775 642 747 838 847 855 858 745 843 747 858 788 640 858 809 792 739 834 736 741 836 737 834 742 833 807 836 834 745 838 834 835 858 742 811 835 835 812 860 833 747 814 859 814 834 734 724 817 855 713 764 736 837 860 815 734 836 816 736 836 816 738 859 507 858 712 862 815 548 765 738 547 858 776 821 713 786 550 858 549 785 811 712 857 549 797 746 786 716 815 539 711 558 733 861 717 856 799 538 695 746 730 818 734 818 738 558 694 801 500 747 694 732 748 498 694 750 731 727 696 795 603 539 751 794 695 540 811 739 538 828 751 736 720 730 830 735 799 697 736 537 793 738 799 538 748 733 802 736 499 731 697 793 801 560 749 845 765 767 823 764 767 767 818 824 825 767 824 801 746 829 829 769 664 645 807 842 813 665 798 834 767 643 808 803 663 813 768 664 806 666 822 813 766 814 640 817 800 639 809 768 817 663 785 803 818 663 799 828 637 851 799 640 819 808 815 666 813 640 825 766 813 836 799 639 562 808 664 815 561 787 832 666 569 636 836 810 809 570 641 840 801 641 805 568 808 639 830 770 572 641 803 571 642 769 822 561 798 773 749 574 668 801 836 641 804 573 821 773 753 669 841 573 641 856 804 660 812 574 749 641 787 781 757 855 755 813 596 747 775 788 849 768 598 776 763 807 826 825 807 820 829 565 814 590 821 827 589 821 565 824 591 821 822 591 823 591 822 568 825 566 827 592 821 580 565 811 805 829 597 602 806 577 828 807 576 812 599 803 596 812 755 578 830 586 803 834 599 820 579 833 816 837 602 822 602 791 832 833 602 830 598 833 809 832 600 833 833 832 831 833 603 832 820 812 832 601 827 744 808 801 833 604 766 811 832 814 858 810 819 844 832 821 602 856 856 762 713 828 818 744 807 597 856 828 822 858 746 810 822 599 855 712 746 856 841 746 864 565 711 863 746 597 856 858 745 714 584 827 802 857 828 821 831 714 810 799 819 820 752 804 834 827 819 805 774 821 830 830 747 803 826 820 838 762 750 826 821 772 829 749 771 812 731 832 819 775 835 770 763 840 828 742 755 817 767 762 833 825 765 815 760 746 795 743 832 747 819 770 767 818 745 832 835 764 834 817 759 815 827 747 796 833 827 760 812 778 767 773 834 830 830 793 835 759 856 806 769 812 832 758 840 835 827 793 815 863 740 835 795 836 858 762 744 814 834 807 762 743 813 834 819 813 804 761 838 799 799 806 696 830 739 799 837 837 815 839 796 797 772 763 833 739 815 799 813 773 826 814 813 739 798 831 798 837 737 683 685 683 683 685 860 685 687 687 638 683 683 635 639 824 826 683 651 862 686

Tree=0
num_leaves=7
num_cat=0
split_feature=3 50 62 73 71 54
split_gain=124.021 87.5673 49.6713 28.9099 14.9674 13.4992
threshold=39.850000000000001 1.0000000180025095e-35 2.5000000000000004 77.950000000000003 4.4500000000000011 1.0000000180025095e-35
decision_type=2 2 2 2 2 2
left_child=1 2 -1 -3 -2 -6
right_child=4 3 -4 -5 5 -7
leaf_value=6.205420713394032 6.2056740240807224 6.2092235335363712 6.2017297701901741 6.2019628824763178 6.2089297771367402 6.2122079911303398
leaf_weight=865 25 330 236 28 136 171
leaf_count=865 25 330 236 28 136 171
internal_value=6.20651 6.20561 6.20461 6.20861 6.21037 6.21081
internal_weight=0 1459 1101 358 332 307
internal_count=1791 1459 1101 358 332 307
is_linear=0
shrinkage=1


Tree=1
num_leaves=7
num_cat=0
split_feature=3 78 62 76 40 41
split_gain=122.285 68.746 41.5502 39.8774 16.2971 11.1701
threshold=39.850000000000001 1.9600000000000002 2.5000000000000004 5.9500000000000011 31.250000000000004 26.500000000000004
decision_type=2 8 2 10 2 2
left_child=1 3 -3 -1 5 -2
right_child=4 2 -4 -5 -6 -7
leaf_value=0.0021680571838160185 0.00065486323723800983 -0.0012932314780126051 -0.0050164969557375686 -0.0012689534186885352 -0.00055903926870002534 0.0049316360951230324
leaf_weight=399 45 566 212 282 31 256
leaf_count=399 45 566 212 282 31 256
internal_value=0 -0.000894609 -0.00232961 0.000719943 0.00383931 0.00434854
internal_weight=0 1459 778 681 332 301
internal_count=1791 1459 778 681 332 301
is_linear=0
shrinkage=0.00704049


Tree=2
num_leaves=7
num_cat=0
split_feature=3 50 62 36 40 41
split_gain=120.574 85.7252 48.2582 28.4033 16.0892 10.9926
threshold=39.850000000000001 1.0000000180025095e-35 2.5000000000000004 30.500000000000004 31.250000000000004 26.500000000000004
decision_type=2 2 2 2 2 2
left_child=1 2 -1 -3 5 -2
right_child=4 3 -4 -5 -6 -7
leaf_value=-0.0010742637085256195 0.0006502537876458131 0.0026922629925555208 -0.0047130996015978385 -0.0045028814990829063 -0.00055510463091785686 0.0048969164756333273
leaf_weight=865 45 330 236 28 31 256
leaf_count=865 45 330 236 28 31 256
internal_value=0 -0.000888393 -0.00186967 0.00208211 0.00381228 0.00431832
internal_weight=0 1459 1101 358 332 301
internal_count=1791 1459 1101 358 332 301
is_linear=0
shrinkage=0.00704049


Tree=3
num_leaves=7
num_cat=0
split_feature=3 50 62 40 40 75
split_gain=118.886 84.5171 47.5722 28.0148 15.8841 10.9255
threshold=39.850000000000001 1.0000000180025095e-35 2.5000000000000004 30.500000000000004 31.250000000000004 0.055000000000000007
decision_type=2 2 2 2 2 2
left_child=1 2 -1 -3 5 -2
right_child=4 3 -4 -5 -6 -7
leaf_value=-0.0010667005097048481 0 0.0026733086532654995 -0.0046799183464654804 -0.0044711909605939992 -0.00055119783284918156 0.0047353621857239795
leaf_weight=865 30 330 236 28 31 271
leaf_count=865 30 330 236 28 31 271
internal_value=0 -0.00088222 -0.00185661 0.00206711 0.00378544 0.00428832
internal_weight=0 1459 1101 358 332 301
internal_count=1791 1459 1101 358 332 301
is_linear=0
shrinkage=0.00704049


Tree=4
num_leaves=7
num_cat=0
split_feature=3 50 62 36 40 41
split_gain=117.213 83.326 46.8958 27.6317 15.6803 10.8335
threshold=39.850000000000001 1.0000000180025095e-35 2.5000000000000004 30.500000000000004 31.250000000000004 30.500000000000004
decision_type=2 2 2 2 2 2
left_child=1 2 -1 -3 5 -2
right_child=4 3 -4 -5 -6 -7
leaf_value=-0.0010591904531339087 0.0025896376600794144 0.0026544878905458732 -0.004646970894310062 -0.0044397232474298852 -0.00054731838775097367 0.0056039006768235549
leaf_weight=865 140 330 236 28 31 161
leaf_count=865 140 330 236 28 31 161
internal_value=0 -0.000876091 -0.00184365 0.00205223 0.00375859 0.0042583
internal_weight=0 1459 1101 358 332 301
internal_count=1791 1459 1101 358 332 301
is_linear=0
shrinkage=0.00704049


Tree=5
num_leaves=8
num_cat=0
split_feature=2 60 17 50 40 42 50
split_gain=110.193 60.6554 34.6232 26.8385 22.3625 21.1888 11.6056
threshold=22.650000000000002 22.915000000000003 12.450000000000001 1.0000000180025095e-35 31.750000000000004 5.2750000000000012 1.0000000180025095e-35
decision_type=2 2 2 2 2 2 2
left_child=1 4 6 -3 -1 -4 -2
right_child=2 3 5 -5 -6 -7 -8
leaf_value=-0.0026302963109726529 0.0028655607476632816 -0.001144226831695848 0.0018470053330824315 0.0020332773974879141 -0.0069672790162004982 -0.0013592836881154004 0.0062558865257058404
leaf_weight=390 240 353 284 210 78 154 82
leaf_count=390 240 353 284 210 78 154 82
internal_value=0 -0.00151619 0.00201704 1.09317e-05 -0.00338944 0.00068102 0.00378169
internal_weight=0 1031 760 563 468 438 322
internal_count=1791 1031 760 563 468 438 322
is_linear=0
shrinkage=0.00704049


Tree=6
num_leaves=7
num_cat=0
split_feature=3 50 62 58 40 75
split_gain=114.609 81.2245 45.8719 27.3612 15.4572 10.7228
threshold=39.850000000000001 1.0000000180025095e-35 2.5000000000000004 164.50000000000003 31.250000000000004 0.055000000000000007
decision_type=2 2 2 2 2 2
left_child=1 2 -1 -3 5 -2
right_child=4 3 -4 -5 -6 -7
leaf_value=-0.0010455840181531953 0 0.003546948176519937 -0.004594447260328152 -0.00036495190415390059 -0.0005568332099668684 0.0046556481245135228
leaf_weight=865 30 223 236 135 31 271
leaf_count=865 30 223 236 135 31 271
internal_value=0 -0.000866324 -0.0018217 0.00202453 0.00371659 0.00421296
internal_weight=0 1459 1101 358 332 301
internal_count=1791 1459 1101 358 332 301
is_linear=0
shrinkage=0.00704049


Tree=7
num_leaves=7
num_cat=0
split_feature=3 50 62 36 40 41
split_gain=112.994 80.0797 45.2196 27.1022 15.2589 10.7054
threshold=39.850000000000001 1.0000000180025095e-35 2.5000000000000004 30.500000000000004 31.250000000000004 26.500000000000004
decision_type=2 2 2 2 2 2
left_child=1 2 -1 -3 5 -2
right_child=4 3 -4 -5 -6 -7
leaf_value=-0.0010382226840769417 0.000564952964762339 0.0026068802381860106 -0.0045621015514065609 -0.0044192540469747575 -0.00055291414817296148 0.0047533358845103331
leaf_weight=865 45 330 236 28 31 256
leaf_count=865 45 330 236 28 31 256
internal_value=0 -0.000860306 -0.00180898 0.00200995 0.0036902 0.00418345
internal_weight=0 1459 1101 358 332 301
internal_count=1791 1459 1101 358 332 301
is_linear=0
shrinkage=0.00704049


Tree=8
num_leaves=7
num_cat=0
split_feature=3 50 72 58 40 41
split_gain=111.413 78.951 43.2604 26.8421 15.0648 10.5352
threshold=39.850000000000001 1.0000000180025095e-35 96.40000000000002 164.50000000000003 31.250000000000004 26.500000000000004
decision_type=2 2 2 2 2 2
left_child=1 2 -1 -3 5 -2
right_child=4 3 -4 -5 -6 -7
leaf_value=-0.0026670598932097759 0.00056097633066694373 0.003503624282259346 0.00040043425036371584 -0.00037047587527367265 -0.0005490227127460174 0.0047198714280499371
leaf_weight=794 45 223 307 135 31 256
leaf_count=794 45 223 307 135 31 256
internal_value=0 -0.000854331 -0.00179635 0.00199546 0.00366422 0.0041544
internal_weight=0 1459 1101 358 332 301
internal_count=1791 1459 1101 358 332 301
is_linear=0
shrinkage=0.00704049


Tree=9
num_leaves=7
num_cat=0
split_feature=3 60 47 40 40 41
split_gain=109.846 73.0126 39.3246 30.9673 14.8733 10.449
threshold=39.850000000000001 22.915000000000003 1.5000000000000002 31.750000000000004 31.250000000000004 30.500000000000004
decision_type=2 2 2 2 2 2
left_child=1 3 -3 -1 5 -2
right_child=4 2 -4 -5 -6 -7
leaf_value=-0.0019186063408641945 0.0024850461743892477 -0.001488757103008894 0.0017551133664786506 -0.0064029568467764411 -0.0005451586097795178 0.0054466590163169447
leaf_weight=568 140 286 511 94 31 161
leaf_count=568 140 286 511 94 31 161
internal_value=0 -0.000848235 0.000569817 -0.00258102 0.00363843 0.00412555
internal_weight=0 1459 797 662 332 301
internal_count=1791 1459 797 662 332 301
is_linear=0
shrinkage=0.00704049


Tree=10
num_leaves=7
num_cat=0
split_feature=3 50 62 36 40 75
split_gain=108.308 77.0784 44.0641 26.6178 14.6843 10.4659
threshold=39.850000000000001 1.0000000180025095e-35 2.5000000000000004 30.500000000000004 31.250000000000004 0.055000000000000007
decision_type=2 2 2 2 2 2
left_child=1 2 -1 -3 5 -2
right_child=4 3 -4 -5 -6 -7
leaf_value=-0.0010121293980641139 0 0.0025652071430114411 -0.0044909635545110549 -0.0043978967662950258 -0.00054132170987001682 0.0045339622392151684
leaf_weight=865 30 330 236 28 31 271
leaf_count=865 30 330 236 28 31 271
internal_value=0 -0.000842345 -0.00177323 0.0019732 0.00361281 0.0040969
internal_weight=0 1459 1101 358 332 301
internal_count=1791 1459 1101 358 332 301
is_linear=0
shrinkage=0.00704049


Tree=11
num_leaves=7
num_cat=0
split_feature=3 50 62 36 40 75
split_gain=106.78 75.9919 43.4374 26.2538 14.4962 10.3139
threshold=39.850000000000001 1.0000000180025095e-35 2.5000000000000004 30.500000000000004 31.250000000000004 0.055000000000000007
decision_type=2 2 2 2 2 2
left_child=1 2 -1 -3 5 -2
right_child=4 3 -4 -5 -6 -7
leaf_value=-0.0010050036000987361 0 0.0025471473157672223 -0.0044593463388100758 -0.004366944988751423 -0.00053751185084032057 0.0045020421363295956
leaf_weight=865 30 330 236 28 31 271
leaf_count=865 30 330 236 28 31 271
internal_value=0 -0.000836496 -0.00176086 0.00195898 0.00358711 0.00406816
internal_weight=0 1459 1101 358 332 301
internal_count=1791 1459 1101 358 332 301
is_linear=0
shrinkage=0.00704049


Tree=12
num_leaves=7
num_cat=0
split_feature=3 50 62 58 40 41
split_gain=105.273 74.9206 42.8195 26.0723 14.3105 10.2845
threshold=39.850000000000001 1.0000000180025095e-35 2.5000000000000004 164.50000000000003 31.250000000000004 26.500000000000004
decision_type=2 2 2 2 2 2
left_child=1 2 -1 -3 5 -2
right_child=4 3 -4 -5 -6 -7
leaf_value=-0.00099792797676904609 0.0004900668111769128 0.0034317698485604822 -0.0044279518420988952 -0.00038598972974242685 -0.00053372876965466717 0.0045973891356473331
leaf_weight=865 45 223 236 135 31 256
leaf_count=865 45 223 236 135 31 256
internal_value=0 -0.000830689 -0.00174857 0.00194485 0.00356159 0.00403962
internal_weight=0 1459 1101 358 332 301
internal_count=1791 1459 1101 358 332 301
is_linear=0
shrinkage=0.00704049


Tree=13
num_leaves=7
num_cat=0
split_feature=3 60 47 40 40 41
split_gain=103.8 70.6569 37.6603 29.7697 14.129 10.1457
threshold=39.850000000000001 22.915000000000003 1.5000000000000002 31.750000000000004 31.250000000000004 30.500000000000004
decision_type=2 2 2 2 2 2
left_child=1 3 -3 -1 5 -2
right_child=4 2 -4 -5 -6 -7
leaf_value=-0.0018793755600466659 0.0023940441985946521 -0.0014437838507942574 0.0017299894658753382 -0.0062784489054623733 -0.00052997233500661942 0.0053127299839026386
leaf_weight=568 140 286 511 94 31 161
leaf_count=568 140 286 511 94 31 161
internal_value=0 -0.000824922 0.000569848 -0.00252968 0.00353652 0.00401158
internal_weight=0 1459 797 662 332 301
internal_count=1791 1459 797 662 332 301
is_linear=0
shrinkage=0.00704049


Tree=14
num_leaves=7
num_cat=0
split_feature=3 50 62 36 71 54
split_gain=102.348 73.147 41.9034 25.7843 13.53 12.5592
threshold=39.850000000000001 1.0000000180025095e-35 2.5000000000000004 30.500000000000004 4.4500000000000011 1.0000000180025095e-35
decision_type=2 2 2 2 2 2
left_child=1 2 -1 -3 -2 -6
right_child=4 3 -4 -5 5 -7
leaf_value=-0.00098343099018001348 -0.00095103298165148654 0.0025063637915844154 -0.0043769647351455101 -0.0043456700889267395 0.0021167114599851275 0.0052732819801833966
leaf_weight=865 25 330 236 28 136 171
leaf_count=865 25 330 236 28 136 171
internal_value=0 -0.000819197 -0.00172625 0.00192305 0.00351162 0.0039302
internal_weight=0 1459 1101 358 332 307
internal_count=1791 1459 1101 358 332 307
is_linear=0
shrinkage=0.00704049


Tree=15
num_leaves=7
num_cat=0
split_feature=3 60 47 40 40 54
split_gain=101.039 72.0986 37.3977 24.8538 17.8805 14.1838
threshold=35.95000000000001 22.915000000000003 1.5000000000000002 31.750000000000004 31.250000000000004 1.0000000180025095e-35
decision_type=2 2 2 2 2 2
left_child=1 3 -3 -1 5 -2
right_child=4 2 -4 -5 -6 -7
leaf_value=-0.0021174908649429203 0.0017330737965544514 -0.0015858441722033578 0.0016759823429243524 -0.0062730046456138501 -0.0013426273558323316 0.0046462890719487279
leaf_weight=520 171 269 482 90 38 221
leaf_count=520 171 269 482 90 38 221
internal_value=0 -0.00095624 0.000485082 -0.00275845 0.00295858 0.00341874
internal_weight=0 1361 751 610 430 392
internal_count=1791 1361 751 610 430 392
is_linear=0
shrinkage=0.00704049


Tree=16
num_leaves=8
num_cat=0
split_feature=2 60 14 42 58 40 54
split_gain=100.043 54.7003 32.3622 24.7672 23.8142 19.8384 4.29971
threshold=22.650000000000002 22.915000000000003 5.1000000000000005 5.2750000000000012 164.50000000000003 31.750000000000004 1.0000000180025095e-35
decision_type=2 2 2 2 2 2 2
left_child=1 5 6 -4 -3 -1 -2
right_child=2 4 3 -5 -6 -7 -8
leaf_value=-0.0025043272305671459 0.0028239261042048674 0.0020701630596022236 0.0021284823754421076 -0.00090842655379780074 -0.00099519102667153573 -0.0066028984925215924 0.0056071066190341405
leaf_weight=390 84 189 372 198 374 78 106
leaf_count=390 84 189 372 198 374 78 106
internal_value=0 -0.00144486 0.00192171 0.00104386 3.80066e-06 -0.00322373 0.00446598
internal_weight=0 1031 760 570 563 468 190
internal_count=1791 1031 760 570 563 468 190
is_linear=0
shrinkage=0.00704049


Tree=17
num_leaves=8
num_cat=0
split_feature=2 60 17 58 72 42 50
split_gain=98.6556 53.9413 32.8092 23.4801 17.9982 17.2141 14.3543
threshold=22.650000000000002 22.915000000000003 13.550000000000002 164.50000000000003 70.605000000000004 5.2750000000000012 1.0000000180025095e-35
decision_type=2 2 2 2 2 2 2
left_child=1 4 6 -3 -1 -4 -2
right_child=2 3 5 -5 -6 -7 -8
leaf_value=-0.0043206768567768646 0.0025857120344309056 0.0020555889688314089 0.0016008065839655632 -0.00098818457430419255 -0.0013160708911108062 -0.0013785939829764901 0.0061852696807722981
leaf_weight=288 260 189 271 374 180 144 85
leaf_count=288 260 189 271 374 180 144 85
internal_value=0 -0.00143481 0.00190834 3.56235e-06 -0.00320129 0.000526186 0.00352179
internal_weight=0 1031 760 563 468 415 345
internal_count=1791 1031 760 563 468 415 345
is_linear=0
shrinkage=0.00704049


Tree=18
num_leaves=7
num_cat=0
split_feature=3 50 62 36 40 75
split_gain=97.9505 70.221 40.5888 25.3093 13.6305 9.97496
threshold=39.850000000000001 1.0000000180025095e-35 2.5000000000000004 30.500000000000004 31.250000000000004 0.055000000000000007
decision_type=2 2 2 2 2 2
left_child=1 2 -1 -3 5 -2
right_child=4 3 -4 -5 -6 -7
leaf_value=-0.00095890794609201197 0 0.0024633397136018045 -0.0042992799636376068 -0.0043254978078752851 -0.00055486421073398383 0.0043289799890868117
leaf_weight=865 30 330 236 28 31 271
leaf_count=865 30 330 236 28 31 271
internal_value=0 -0.000801435 -0.00169033 0.00188497 0.00343533 0.00390253
internal_weight=0 1459 1101 358 332 301
internal_count=1791 1459 1101 358 332 301
is_linear=0
shrinkage=0.00704049


Tree=19
num_leaves=7
num_cat=0
split_feature=3 50 62 59 40 76
split_gain=96.612 69.3795 35.2684 25.5981 17.4168 13.9975
threshold=35.95000000000001 1.0000000180025095e-35 2.5000000000000004 58.250000000000007 31.250000000000004 6.495000000000001
decision_type=2 2 2 2 2 8
left_child=1 2 -1 -3 5 -2
right_child=4 3 -4 -5 -6 -7
leaf_value=-0.0011401220076827918 0.0044032459119358212 -0.0030654845718979477 -0.0043763532921089502 0.0026080169780049382 -0.0013505277052414284 0.0014321397079975486
leaf_weight=807 247 43 220 291 38 145
leaf_count=807 247 43 220 291 38 145
internal_value=0 -0.000935153 -0.0018499 0.00182683 0.00289293 0.0033475
internal_weight=0 1361 1027 334 430 392
internal_count=1791 1361 1027 334 430 392
is_linear=0
shrinkage=0.00704049


Tree=20
num_leaves=8
num_cat=0
split_feature=2 60 17 58 40 3 50
split_gain=95.6313 52.4131 32.176 22.6697 19.1192 17.1362 13.9463
threshold=22.650000000000002 22.915000000000003 13.550000000000002 164.50000000000003 31.750000000000004 46.550000000000004 1.0000000180025095e-35
decision_type=2 2 2 2 2 2 2
left_child=1 4 6 -3 -1 -4 -2
right_child=2 3 5 -5 -6 -7 -8
leaf_value=-0.0024466395595087887 0.0025520919596630541 0.0020214630395637106 -0.00043237141842521388 -0.0009692436328089906 -0.0064732386118155731 0.0025888835200830796 0.006104143562018753
leaf_weight=390 260 189 280 374 78 135 85
leaf_count=390 260 189 280 374 78 135 85
internal_value=0 -0.00141275 0.00187876 4.68836e-06 -0.00315405 0.000509691 0.00347647
internal_weight=0 1031 760 563 468 415 345
internal_count=1791 1031 760 563 468 415 345
is_linear=0
shrinkage=0.00704049


Tree=21
num_leaves=7
num_cat=0
split_feature=3 50 72 36 40 41
split_gain=94.3468 67.6389 39.933 24.9171 13.2445 9.93558
threshold=39.850000000000001 1.0000000180025095e-35 96.40000000000002 30.500000000000004 31.250000000000004 26.500000000000004
decision_type=2 2 2 2 2 2
left_child=1 2 -1 -3 5 -2
right_child=4 3 -4 -5 -6 -7
leaf_value=-0.0024963969331317473 0.00034912059660394281 0.0024237119865848406 0.00045072393298385899 -0.0043128985297187332 -0.00055693451193182043 0.0043783050230868795
leaf_weight=794 45 330 307 28 31 256
leaf_count=794 45 330 307 28 31 256
internal_value=0 -0.000786707 -0.00165926 0.00184942 0.00337139 0.00383222
internal_weight=0 1459 1101 358 332 301
internal_count=1791 1459 1101 358 332 301
is_linear=0
shrinkage=0.00704049


Tree=22
num_leaves=8
num_cat=0
split_feature=3 50 60 3 36 58 72
split_gain=93.7139 42.3233 40.8393 37.7164 30.7844 20.0228 14.3781
threshold=18.700000000000006 1.0000000180025095e-35 23.210000000000004 39.850000000000001 30.500000000000004 164.50000000000003 70.605000000000004
decision_type=2 2 2 2 2 2 2
left_child=2 3 6 -2 -3 -4 -1
right_child=1 4 5 -5 -6 -7 -8
leaf_value=-0.0048273771863628105 -0.00042031334016070333 0.0049963187390630681 0.0016949295417184511 0.0028061552672984415 -0.0029025648906715095 -0.0015903441550099693 -0.0016556785894376647
leaf_weight=219 566 201 146 259 25 241 134
leaf_count=219 566 201 146 259 25 241 134
internal_value=0 0.00133558 -0.00193493 0.000572103 0.00404754 -0.000307178 -0.00367144
internal_weight=0 1051 740 825 226 387 353
internal_count=1791 1051 740 825 226 387 353
is_linear=0
shrinkage=0.00704049


Tree=23
num_leaves=8
num_cat=0
split_feature=2 60 17 58 40 42 50
split_gain=92.4807 50.6658 31.5367 21.7711 18.6861 16.5407 13.4306
threshold=22.650000000000002 22.915000000000003 13.550000000000002 164.50000000000003 31.750000000000004 5.2750000000000012 1.0000000180025095e-35
decision_type=2 2 2 2 2 2 2
left_child=1 4 6 -3 -1 -4 -2
right_child=2 3 5 -5 -6 -7 -8
leaf_value=-0.0024013428717310852 0.0025196439521114299 0.0019808286050454469 0.0015463287517023475 -0.00095000958941824222 -0.0063832735905097766 -0.0013750152278542136 0.0060114935213008511
leaf_weight=390 260 189 271 374 78 144 85
leaf_count=390 260 189 271 374 78 144 85
internal_value=0 -0.00138928 0.00184755 3.82407e-06 -0.0031013 0.000491852 0.00342918
internal_weight=0 1031 760 563 468 415 345
internal_count=1791 1031 760 563 468 415 345
is_linear=0
shrinkage=0.00704049


Tree=24
num_leaves=8
num_cat=0
split_feature=3 50 3 50 72 36 58
split_gain=91.5065 41.3005 36.9124 36.1917 30.9604 30.2969 15.0096
threshold=18.700000000000006 1.0000000180025095e-35 39.850000000000001 1.0000000180025095e-35 96.40000000000002 30.500000000000004 164.50000000000003
decision_type=2 2 2 2 2 2 2
left_child=3 2 -2 4 -1 -3 -5
right_child=1 5 -4 6 -6 -7 -8
leaf_value=-0.0039193448331198578 -0.00041634059912342786 0.004940468177273262 0.0027753881251574579 0.0021673616327360342 0 -0.0028940738506726986 -0.001662290983350195
leaf_weight=389 566 201 259 122 146 25 83
leaf_count=389 566 201 259 122 146 25 83
internal_value=0 0.00131966 0.000565169 -0.0019121 -0.00288112 0.00399881 0.000534228
internal_weight=0 1051 825 740 535 226 205
internal_count=1791 1051 825 740 535 226 205
is_linear=0
shrinkage=0.00704049


Tree=25
num_leaves=8
num_cat=0
split_feature=3 50 60 3 36 58 72
split_gain=90.2252 40.7056 39.2681 36.3972 29.891 19.2394 14.0397
threshold=18.700000000000006 1.0000000180025095e-35 23.210000000000004 39.850000000000001 30.500000000000004 164.50000000000003 70.605000000000004
decision_type=2 2 2 2 2 2 2
left_child=2 3 6 -2 -3 -4 -1
right_child=1 4 5 -5 -6 -7 -8
leaf_value=-0.0047437679251943034 -0.00041340940936338753 0.0049056866276023644 0.0016596981812119795 0.0027558488272105752 -0.0028737067478985415 -0.0015602344097033864 -0.0016085715165058635
leaf_weight=219 566 201 146 259 25 241 134
leaf_count=219 566 201 146 259 25 241 134
internal_value=0 0.00131025 -0.0018988 0.000561046 0.00397013 -0.00030172 -0.00360168
internal_weight=0 1051 740 825 226 387 353
internal_count=1791 1051 740 825 226 387 353
is_linear=0
shrinkage=0.00704049


Tree=26
num_leaves=8
num_cat=0
split_feature=2 78 17 58 40 42 50
split_gain=88.9446 48.9085 30.9629 24.8069 19.4891 16.1436 12.8489
threshold=22.650000000000002 1.9950000000000003 13.550000000000002 164.50000000000003 31.750000000000004 5.2750000000000012 1.0000000180025095e-35
decision_type=2 8 2 2 2 2 2
left_child=1 3 6 -1 -3 -4 -2
right_child=2 4 5 -5 -6 -7 -8
leaf_value=0.0022324981694982647 0.0024860314785823431 -0.0022732547701522542 0.0015106487494236981 -0.0009734260512011979 -0.0062900790572738285 -0.0013761257100368253 0.0059089136627386157
leaf_weight=183 260 428 271 342 78 144 85
leaf_count=183 260 428 271 342 78 144 85
internal_value=0 -0.00136269 0.00181165 0.000111841 -0.00292603 0.000468167 0.00337858
internal_weight=0 1031 760 525 506 415 345
internal_count=1791 1031 760 525 506 415 345
is_linear=0
shrinkage=0.00704049


Tree=27
num_leaves=7
num_cat=0
split_feature=3 60 47 40 40 76
split_gain=88.1165 64.0166 33.7684 22.1065 16.7196 13.6604
threshold=35.95000000000001 22.915000000000003 1.5000000000000002 31.750000000000004 31.250000000000004 6.495000000000001
decision_type=2 2 2 2 2 8
left_child=1 3 -3 -1 5 -2
right_child=4 2 -4 -5 -6 -7
leaf_value=-0.0019846168445302906 0.004249941471245129 -0.0015024395888225295 0.0015962241949654852 -0.0059114261085337029 -0.0013956056128053541 0.0013185388179581933
leaf_weight=520 247 269 482 90 38 145
leaf_count=520 247 269 482 90 38 145
internal_value=0 -0.00089332 0.000463767 -0.00259183 0.00276257 0.00320888
internal_weight=0 1361 751 610 430 392
internal_count=1791 1361 751 610 430 392
is_linear=0
shrinkage=0.00704049


Tree=28
num_leaves=7
num_cat=0
split_feature=40 50 6 72 62 8
split_gain=67.4585 56.4308 37.5149 26.9013 25.9656 1.90149
threshold=31.250000000000004 1.0000000180025095e-35 290.45000000000005 59.20000000000001 2.5000000000000004 2.6900000000000008
decision_type=2 2 2 2 2 2
left_child=1 2 -1 -3 5 -2
right_child=4 3 -4 -5 -6 -7
leaf_value=-0.0015331250026504011 -0.0019769005190286336 -0.0026477408216624121 0.00093519746556133159 0.0032834694834396293 -0.0065162264263222717 0.00021753879914223039
leaf_weight=630 27 39 585 372 102 36
leaf_count=630 27 39 585 372 102 36
internal_value=0 0.000419727 -0.000330741 0.00267941 -0.00430449 -0.000454409
internal_weight=0 1626 1215 411 165 63
internal_count=1791 1626 1215 411 165 63
is_linear=0
shrinkage=0.00704049


Tree=29
num_leaves=8
num_cat=0
split_feature=3 50 60 3 36 58 72
split_gain=87.1311 39.0386 37.4798 34.872 29.1641 18.3868 13.5299
threshold=18.700000000000006 1.0000000180025095e-35 23.210000000000004 39.850000000000001 30.500000000000004 164.50000000000003 70.605000000000004
decision_type=2 2 2 2 2 2 2
left_child=2 3 6 -2 -3 -4 -1
right_child=1 4 5 -5 -6 -7 -8
leaf_value=-0.004651710642078484 -0.00039996538384082437 0.0048174956403628112 0.0016113362764799729 0.0027016835596211102 -0.0028647344274932139 -0.0015354249205998562 -0.0015701208670967403
leaf_weight=219 566 201 146 259 25 241 134
leaf_count=219 566 201 146 259 25 241 134
internal_value=0 0.00128749 -0.00186605 0.000553264 0.00389269 -0.000304515 -0.00352997
internal_weight=0 1051 740 825 226 387 353
internal_count=1791 1051 740 825 226 387 353
is_linear=0
shrinkage=0.00704049


Tree=30
num_leaves=8
num_cat=0
split_feature=3 50 60 3 36 58 72
split_gain=85.9113 38.4757 36.9604 34.3853 28.7735 18.1302 13.3232
threshold=18.700000000000006 1.0000000180025095e-35 23.210000000000004 39.850000000000001 30.500000000000004 164.50000000000003 70.605000000000004
decision_type=2 2 2 2 2 2 2
left_child=2 3 6 -2 -3 -4 -1
right_child=1 4 5 -5 -6 -7 -8
leaf_value=-0.0046189618402047005 -0.00039714949244478234 0.0047835799113527724 0.0015999924694094 0.0026826631552092114 -0.0028445737204452421 -0.0015246152490704786 -0.0015590673299231551
leaf_weight=219 566 201 146 259 25 241 134
leaf_count=219 566 201 146 259 25 241 134
internal_value=0 0.00127831 -0.00185308 0.000549225 0.00386475 -0.000302064 -0.00350546
internal_weight=0 1051 740 825 226 387 353
internal_count=1791 1051 740 825 226 387 353
is_linear=0
shrinkage=0.00704049


Tree=31
num_leaves=8
num_cat=0
split_feature=3 50 60 3 36 36 72
split_gain=84.7086 37.9209 36.4483 33.9055 28.3883 17.952 13.1195
threshold=18.700000000000006 1.0000000180025095e-35 23.210000000000004 39.850000000000001 30.500000000000004 26.500000000000004 70.605000000000004
decision_type=2 2 2 2 2 2 2
left_child=2 3 6 -2 -3 -4 -1
right_child=1 4 5 -5 -6 -7 -8
leaf_value=-0.0045864437095163944 -0.00039435341768935203 0.0047499028877202049 0.0013863255015341969 0.0026637766602888254 -0.0028245549323992663 -0.0016563811414613324 -0.001548091561417324
leaf_weight=219 566 201 167 259 25 220 134
leaf_count=219 566 201 167 259 25 220 134
internal_value=0 0.0012692 -0.00184019 0.000545214 0.00383702 -0.000299629 -0.00348112
internal_weight=0 1051 740 825 226 387 353
internal_count=1791 1051 740 825 226 387 353
is_linear=0
shrinkage=0.00704049


Tree=32
num_leaves=8
num_cat=0
split_feature=3 60 42 76 36 47 40
split_gain=83.5261 38.124 34.0911 55.5614 24.9063 18.7432 13.5125
threshold=20.250000000000004 22.915000000000003 5.2750000000000012 6.495000000000001 30.500000000000004 1.5000000000000002 31.750000000000004
decision_type=2 2 2 8 2 2 2
left_child=1 6 3 -2 -4 -3 -1
right_child=2 5 4 -5 -6 -7 -8
leaf_value=-0.0026669273123811517 0.0040117779943849045 -0.0023238937987069214 0.00041625127769203356 -0.00020196416554802939 -0.0046418075460797192 0.00076563407085295041 -0.0066076497193775074
leaf_weight=314 386 145 294 247 57 288 60
leaf_count=314 386 145 294 247 57 288 60
internal_value=0 -0.00169438 0.00136129 0.00234083 -0.000357022 -0.000229896 -0.00334456
internal_weight=0 807 984 633 351 433 374
internal_count=1791 807 984 633 351 433 374
is_linear=0
shrinkage=0.00704049


Tree=33
num_leaves=8
num_cat=0
split_feature=3 60 50 62 69 54 19
split_gain=82.7158 59.9344 35.8563 19.3527 14.8148 14.9664 2.34643
threshold=35.95000000000001 22.915000000000003 1.0000000180025095e-35 2.5000000000000004 4.1000000000000005 1.0000000180025095e-35 0.55000000000000016
decision_type=2 2 2 2 2 2 2
left_child=1 3 -3 -1 6 -6 -2
right_child=4 2 -4 -5 5 -7 -8
leaf_value=-0.0017215767013228308 0 -0.00069852568189378154 0.0024783144684660187 -0.0047327099968862201 0.0014031986347800135 0.0043754098569598185 -0.0028419944794673461
leaf_weight=456 21 475 276 154 171 218 20
leaf_count=456 21 475 276 154 171 218 20
internal_value=0 -0.000866004 0.000446469 -0.00250959 0.00267607 0.00311246 -0.00105116
internal_weight=0 1361 751 610 430 389 41
internal_count=1791 1361 751 610 430 389 41
is_linear=0
shrinkage=0.00704049


Tree=34
num_leaves=8
num_cat=0
split_feature=3 50 60 3 36 36 72
split_gain=81.852 36.9289 34.9329 32.7202 27.7382 17.567 12.8492
threshold=18.700000000000006 1.0000000180025095e-35 23.210000000000004 39.850000000000001 30.500000000000004 26.500000000000004 70.605000000000004
decision_type=2 2 2 2 2 2 2
left_child=2 3 6 -2 -3 -4 -1
right_child=1 4 5 -5 -6 -7 -8
leaf_value=-0.0045093076733603264 -0.00038990464669914313 0.0046843146211397284 0.001367270444615283 0.0026140780211962884 -0.0027995373627855142 -0.0016422158819974844 -0.0015020270155136149
leaf_weight=219 566 201 167 259 25 220 134
leaf_count=219 566 201 167 259 25 220 134
internal_value=0 0.0012474 -0.00180911 0.000532663 0.00378145 -0.000299799 -0.00341577
internal_weight=0 1051 740 825 226 387 353
internal_count=1791 1051 740 825 226 387 353
is_linear=0
shrinkage=0.00704049


Tree=35
num_leaves=8
num_cat=0
split_feature=2 78 14 58 42 62 48
split_gain=80.7178 45.1017 29.7291 22.5765 21.8672 18.0646 3.99128
threshold=22.650000000000002 1.9950000000000003 5.1000000000000005 164.50000000000003 5.2750000000000012 2.5000000000000004 1.0000000180025095e-35
decision_type=2 8 2 2 2 2 2
left_child=1 3 6 -1 -4 -3 -2
right_child=2 5 4 -5 -6 -7 -8
leaf_value=0.0021402348504660908 0.0029482198910256627 -0.0018328903937465026 0.0019048444788967106 -0.00091743907253093778 -0.00095041036655810695 -0.0048614263924369929 0.0056519878196649694
leaf_weight=183 111 350 372 342 198 156 79
leaf_count=183 111 350 372 342 198 156 79
internal_value=0 -0.00129871 0.00172525 0.000116152 0.000883317 -0.00280013 0.00416177
internal_weight=0 1031 760 525 570 506 190
internal_count=1791 1031 760 525 570 506 190
is_linear=0
shrinkage=0.00704049


Tree=36
num_leaves=8
num_cat=0
split_feature=3 50 40 3 36 78 42
split_gain=79.9047 36.1873 32.3065 31.9595 27.3171 26.2797 2.03086
threshold=18.700000000000006 1.0000000180025095e-35 31.250000000000004 39.850000000000001 30.500000000000004 1.6950000000000001 5.2750000000000012
decision_type=2 2 2 2 2 10 2
left_child=2 3 5 -2 -3 -1 -4
right_child=1 4 6 -5 -6 -7 -8
leaf_value=0.00087462532306149365 -0.00038687265598101123 0.0046372742996259883 -0.0033423630829369985 0.0025818393288313756 -0.0027877638640804009 -0.0021608066733773339 -0.0074328771997892399
leaf_weight=193 566 201 29 259 25 469 49
leaf_count=193 566 201 29 259 25 469 49
internal_value=0 0.00123237 -0.00178756 0.000524622 0.00374092 -0.00125028 -0.00612973
internal_weight=0 1051 740 825 226 662 78
internal_count=1791 1051 740 825 226 662 78
is_linear=0
shrinkage=0.00704049


Tree=37
num_leaves=7
num_cat=0
split_feature=3 60 47 3 71 54
split_gain=78.8763 55.5837 30.4288 23.2667 12.604 11.1973
threshold=39.850000000000001 22.915000000000003 1.5000000000000002 27.950000000000003 4.4500000000000011 1.0000000180025095e-35
decision_type=2 2 2 2 2 2
left_child=1 3 -3 -1 -2 -6
right_child=4 2 -4 -5 5 -7
leaf_value=-0.0029995892241920226 -0.0012505664223541591 -0.0012916717963332731 0.0015593267187916588 0 0.0017750092837510837 0.0047541866223627703
leaf_weight=495 25 286 511 167 136 171
leaf_count=495 25 286 511 167 136 171
internal_value=0 -0.0007202 0.000515012 -0.00223287 0.0030817 0.00348967
internal_weight=0 1459 797 662 332 307
internal_count=1791 1459 797 662 332 307
is_linear=0
shrinkage=0.00704049


Tree=38
num_leaves=8
num_cat=0
split_feature=2 78 17 58 72 69 50
split_gain=77.7882 43.6647 29.5214 21.888 17.6198 14.9882 11.4217
threshold=22.650000000000002 1.9950000000000003 13.550000000000002 164.50000000000003 70.605000000000004 4.1000000000000005 1.0000000180025095e-35
decision_type=2 8 2 2 2 2 2
left_child=1 3 6 -1 -3 -4 -2
right_child=2 4 5 -5 -6 -7 -8
leaf_value=0.0021100191023648868 0.0023738150189157865 -0.0039751707877476372 -0.0032865112571561759 -0.00090045085811735431 -0.0011991735199307228 0.00089630942530001068 0.0056186948812891636
leaf_weight=183 260 277 47 342 229 368 85
leaf_count=183 260 277 47 342 229 368 85
internal_value=0 -0.00127499 0.00169359 0.000116686 -0.00275235 0.000381725 0.0032225
internal_weight=0 1031 760 525 506 415 345
internal_count=1791 1031 760 525 506 415 345
is_linear=0
shrinkage=0.00704049


Tree=39
num_leaves=8
num_cat=0
split_feature=3 50 60 3 36 36 72
split_gain=77.3485 35.1161 33.0698 30.7298 26.8925 16.833 12.4104
threshold=18.700000000000006 1.0000000180025095e-35 23.210000000000004 39.850000000000001 30.500000000000004 26.500000000000004 70.605000000000004
decision_type=2 2 2 2 2 2 2
left_child=2 3 6 -2 -3 -4 -1
right_child=1 4 5 -5 -6 -7 -8
leaf_value=-0.0043965492512344643 -0.00037834945292394037 0.0045736818141361522 0.0013418749148654586 0.0025323312643739577 -0.0027932552367994066 -0.0016039046393887936 -0.0014395443257721743
leaf_weight=219 566 201 167 259 25 220 134
leaf_count=219 566 201 167 259 25 220 134
internal_value=0 0.00121247 -0.00175876 0.000514926 0.00368375 -0.000288979 -0.0033221
internal_weight=0 1051 740 825 226 387 353
internal_count=1791 1051 740 825 226 387 353
is_linear=0
shrinkage=0.00704049


Tree=40
num_leaves=8
num_cat=0
split_feature=3 50 60 3 36 36 40
split_gain=76.2658 34.6091 32.6119 30.3011 26.5328 16.5982 11.7016
threshold=18.700000000000006 1.0000000180025095e-35 23.210000000000004 39.850000000000001 30.500000000000004 26.500000000000004 31.750000000000004
decision_type=2 2 2 2 2 2 2
left_child=2 3 6 -2 -3 -4 -1
right_child=1 4 5 -5 -6 -7 -8
leaf_value=-0.0026178143526361043 -0.00037568574497590627 0.0045414825422343359 0.0013324280776562556 0.0025145031185418148 -0.0027735976163026847 -0.0015926129307817633 -0.0063425647427932039
leaf_weight=293 566 201 167 259 25 220 60
leaf_count=293 566 201 167 259 25 220 60
internal_value=0 0.00120382 -0.00174654 0.000511157 0.00365729 -0.000286636 -0.00329905
internal_weight=0 1051 740 825 226 387 353
internal_count=1791 1051 740 825 226 387 353
is_linear=0
shrinkage=0.00704049


Tree=41
num_leaves=7
num_cat=0
split_feature=3 60 50 40 40 76
split_gain=75.231 55.2859 33.1029 19.438 15.4582 12.8717
threshold=35.95000000000001 22.915000000000003 1.0000000180025095e-35 31.750000000000004 31.250000000000004 6.495000000000001
decision_type=2 2 2 2 2 8
left_child=1 3 -3 -1 5 -2
right_child=4 2 -4 -5 -6 -7
leaf_value=-0.0018328326342895332 0.0039906813324231561 -0.0006654439208110234 0.0023862787757069808 -0.0055224554271498007 -0.0014450623728235546 0.0011479385965464906
leaf_weight=520 247 475 276 90 38 145
leaf_count=520 247 475 276 90 38 145
internal_value=0 -0.000826266 0.000433568 -0.00240504 0.00255174 0.00298241
internal_weight=0 1361 751 610 430 392
internal_count=1791 1361 751 610 430 392
is_linear=0
shrinkage=0.00704049


Tree=42
num_leaves=8
num_cat=0
split_feature=3 50 40 3 36 78 42
split_gain=74.6871 33.8054 30.6512 29.3513 26.1061 24.7074 1.78925
threshold=18.700000000000006 1.0000000180025095e-35 31.250000000000004 39.850000000000001 30.500000000000004 1.6950000000000001 5.2750000000000012
decision_type=2 2 2 2 2 10 2
left_child=2 3 5 -2 -3 -1 -4
right_child=1 4 6 -5 -6 -7 -8
leaf_value=0.00085428479572189546 -0.00036609925538753777 0.004493588694461214 -0.0032475576985208114 0.0024780468383001054 -0.0027605006828642408 -0.0020876972509771838 -0.0072169971020071555
leaf_weight=193 566 201 29 259 25 469 49
leaf_count=193 566 201 29 259 25 469 49
internal_value=0 0.00119115 -0.00172851 0.000506288 0.00361614 -0.00120441 -0.00595885
internal_weight=0 1051 740 825 226 662 78
internal_count=1791 1051 740 825 226 662 78
is_linear=0
shrinkage=0.00704049


Tree=43
num_leaves=8
num_cat=0
split_feature=3 78 42 76 36 72 58
split_gain=73.6459 33.7334 32.1726 52.7308 23.4078 16.1291 14.061
threshold=20.250000000000004 1.9600000000000002 5.2750000000000012 6.495000000000001 30.500000000000004 70.605000000000004 164.50000000000003
decision_type=2 8 2 8 2 2 2
left_child=1 6 3 -2 -4 -3 -1
right_child=2 5 4 -5 -6 -7 -8
leaf_value=0.0017616361875681312 0.0038581868528511777 -0.0042336794719133944 0.00035624042229289636 -0.00024657137135791882 -0.0045431561320290192 -0.001460124972699177 -0.0011280278201370912
leaf_weight=144 386 223 294 247 57 243 197
leaf_count=144 386 223 294 247 57 243 197
internal_value=0 -0.00159162 0.00127762 0.00222976 -0.000391265 -0.00282378 4.26085e-05
internal_weight=0 807 984 633 351 466 341
internal_count=1791 807 984 633 351 466 341
is_linear=0
shrinkage=0.00704049


Tree=44
num_leaves=7
num_cat=0
split_feature=3 50 72 36 71 54
split_gain=72.7552 51.8967 35.1098 21.5859 12.2512 10.7669
threshold=39.850000000000001 1.0000000180025095e-35 96.40000000000002 30.500000000000004 4.4500000000000011 1.0000000180025095e-35
decision_type=2 2 2 2 2 2
left_child=1 2 -1 -3 -2 -6
right_child=4 3 -4 -5 5 -7
leaf_value=-0.0022433287601575981 -0.0013163337737458706 0.0021518092771223062 0.00052009803847085311 -0.004116734964327266 0.0016799228543151541 0.0046017333221522825
leaf_weight=794 25 330 307 28 136 171
leaf_count=794 25 330 307 28 136 171
internal_value=0 -0.000692121 -0.00145741 0.00161413 0.00295927 0.00336263
internal_weight=0 1459 1101 358 332 307
internal_count=1791 1459 1101 358 332 307
is_linear=0
shrinkage=0.00704049


Tree=45
num_leaves=8
num_cat=0
split_feature=2 78 17 58 62 69 50
split_gain=71.9434 40.6076 28.7257 20.3378 17.0401 14.5319 10.5789
threshold=22.650000000000002 1.9950000000000003 13.550000000000002 164.50000000000003 2.5000000000000004 4.1000000000000005 1.0000000180025095e-35
decision_type=2 8 2 2 2 2 2
left_child=1 3 6 -1 -3 -4 -2
right_child=2 4 5 -5 -6 -7 -8
leaf_value=0.0020368690161027595 0.0023141336027575183 -0.0017107906170868246 -0.0032801429794146087 -0.00086468332203297536 -0.004652674351472849 0.00084198558788104057 0.0054496153002238186
leaf_weight=183 260 350 47 342 156 368 85
leaf_count=183 260 350 47 342 156 368 85
internal_value=0 -0.00122652 0.00162835 0.000114487 -0.00265131 0.000334275 0.00313586
internal_weight=0 1031 760 525 506 415 345
internal_count=1791 1031 760 525 506 415 345
is_linear=0
shrinkage=0.00704049


Tree=46
num_leaves=8
num_cat=0
split_feature=3 50 60 3 36 36 40
split_gain=71.6258 32.5893 30.6455 27.9737 25.274 15.8158 10.8607
threshold=18.700000000000006 1.0000000180025095e-35 23.210000000000004 39.850000000000001 30.500000000000004 26.500000000000004 31.750000000000004
decision_type=2 2 2 2 2 2 2
left_child=2 3 6 -2 -3 -4 -1
right_child=1 4 5 -5 -6 -7 -8
leaf_value=-0.0025376963026359665 -0.00035750568172462222 0.004411501299073051 0.0013031265165393208 0.0024187006973616075 -0.0027209546510838542 -0.0015518932875391352 -0.0061388156610222263
leaf_weight=293 566 201 167 259 25 220 60
leaf_count=293 566 201 167 259 25 220 60
internal_value=0 0.00116639 -0.0016928 0.000493553 0.00354751 -0.000276132 -0.00319791
internal_weight=0 1051 740 825 226 387 353
internal_count=1791 1051 740 825 226 387 353
is_linear=0
shrinkage=0.00704049


Tree=47
num_leaves=8
num_cat=0
split_feature=3 20 60 76 36 72 73
split_gain=70.6233 32.7799 30.2214 23.6986 15.5952 11.7425 10.5319
threshold=18.700000000000006 4.2500000000000009 23.210000000000004 6.1950000000000012 26.500000000000004 70.605000000000004 77.950000000000003
decision_type=2 2 2 8 2 2 2
left_child=2 6 5 -3 -4 -1 -2
right_child=1 3 4 -5 -6 -7 -8
leaf_value=-0.0042204017293907504 0.0036296830689392903 0.0014382671643120492 0.0012939523792421224 -0.0010774594994186759 -0.0015409677166401217 -0.001341869416702229 0
leaf_weight=219 263 433 167 319 220 134 36
leaf_count=219 263 433 167 319 220 134 36
internal_value=0 0.00115807 -0.00168105 0.000348576 -0.00027388 -0.00317573 0.00313727
internal_weight=0 1051 740 752 387 353 299
internal_count=1791 1051 740 752 387 353 299
is_linear=0
shrinkage=0.00704049


Tree=48
num_leaves=7
num_cat=0
split_feature=3 60 50 40 71 54
split_gain=69.7591 51.8378 31.0445 18.1189 15.8495 15.4715
threshold=35.95000000000001 22.915000000000003 1.0000000180025095e-35 31.750000000000004 4.4500000000000011 1.0000000180025095e-35
decision_type=2 2 2 2 2 2
left_child=1 3 -3 -1 -2 -6
right_child=4 2 -4 -5 5 -7
leaf_value=-0.0017707626487968695 -0.002168017825704179 -0.00064002664458817052 0.0023147188772319771 -0.0053380785760087099 0.0012285217843148841 0.0041727344653418449
leaf_weight=520 30 475 276 90 186 214
leaf_count=520 30 475 276 90 186 214
internal_value=0 -0.000795998 0.000423345 -0.00232493 0.00245683 0.00284607
internal_weight=0 1361 751 610 430 400
internal_count=1791 1361 751 610 430 400
is_linear=0
shrinkage=0.00704049


Tree=49
num_leaves=8
num_cat=0
split_feature=3 20 60 76 58 72 73
split_gain=69.1613 32.1842 29.3594 23.2731 15.3007 11.5098 10.3897
threshold=18.700000000000006 4.2500000000000009 23.210000000000004 6.1950000000000012 164.50000000000003 70.605000000000004 77.950000000000003
decision_type=2 2 2 8 2 2 2
left_child=2 6 5 -3 -4 -1 -2
right_child=1 3 4 -5 -6 -7 -8
leaf_value=-0.0041715241044900956 0.00359627934454333 0.0014235976058183982 0.0014668365002103133 -0.0010693892623493395 -0.0014020191214836125 -0.0013199566551457204 0
leaf_weight=219 263 433 146 319 241 134 36
leaf_count=219 263 433 146 319 241 134 36
internal_value=0 0.00114587 -0.0016637 0.000343553 -0.000275954 -0.00313709 0.00310705
internal_weight=0 1051 740 752 387 353 299
internal_count=1791 1051 740 752 387 353 299
is_linear=0
shrinkage=0.00704049


Tree=50
num_leaves=8
num_cat=0
split_feature=2 78 17 58 62 69 74
split_gain=67.922 38.7517 27.6214 19.3364 16.508 14.2212 8.07767
threshold=22.650000000000002 1.9950000000000003 13.550000000000002 164.50000000000003 2.5000000000000004 4.1000000000000005 205.50000000000003
decision_type=2 8 2 2 2 2 10
left_child=1 3 6 -1 -3 -4 -2
right_child=2 4 5 -5 -6 -7 -8
leaf_value=0.00199221686288559 0.0016813771037230251 -0.0016575701019072625 -0.0032642121249268868 -0.00083654246558161256 -0.0045539698316732057 0.00081505111339250818 0.0041080212309654758
leaf_weight=183 156 350 47 342 156 368 189
leaf_count=183 156 350 47 342 156 368 189
internal_value=0 -0.00119211 0.00158182 0.000117254 -0.00258407 0.000312195 0.00305991
internal_weight=0 1031 760 525 506 415 345
internal_count=1791 1031 760 525 506 415 345
is_linear=0
shrinkage=0.00704049


Tree=51
num_leaves=7
num_cat=0
split_feature=3 60 50 40 71 54
split_gain=67.8719 48.5548 30.0912 20.837 11.7695 10.357
threshold=39.850000000000001 22.915000000000003 1.0000000180025095e-35 31.750000000000004 4.4500000000000011 1.0000000180025095e-35
decision_type=2 2 2 2 2 2
left_child=1 3 -3 -1 -2 -6
right_child=4 2 -4 -5 5 -7
leaf_value=-0.0015320833440085131 -0.0013292344647279815 -0.00053964287090756949 0.0022756613894618751 -0.0052299937531578395 0.0016019908016798011 0.0044690884532848103
leaf_weight=568 25 501 296 94 136 171
leaf_count=568 25 501 296 94 136 171
internal_value=0 -0.000668667 0.000484714 -0.00208281 0.00285805 0.00325422
internal_weight=0 1459 797 662 332 307
internal_count=1791 1459 797 662 332 307
is_linear=0
shrinkage=0.00704049


Tree=52
num_leaves=8
num_cat=0
split_feature=3 20 60 76 36 72 73
split_gain=67.1244 31.3171 28.3267 22.7526 15.0484 11.2361 10.2257
threshold=18.700000000000006 4.2500000000000009 23.210000000000004 6.1950000000000012 26.500000000000004 70.605000000000004 77.950000000000003
decision_type=2 2 2 8 2 2 2
left_child=2 6 5 -3 -4 -1 -2
right_child=1 3 4 -5 -6 -7 -8
leaf_value=-0.0041086672080878142 0.0035491018363693564 0.001405127249817912 0.0012638359969240876 -0.0010597715828224339 -0.0015202006800349238 -0.0012895087353988867 -1.4717702930037125e-05
leaf_weight=219 263 433 167 319 220 134 36
leaf_count=219 263 433 167 319 220 134 36
internal_value=0 0.00112877 -0.00163912 0.000336998 -0.000275071 -0.00308654 0.0030634
internal_weight=0 1051 740 752 387 353 299
internal_count=1791 1051 740 752 387 353 299
is_linear=0
shrinkage=0.00704049


Tree=53
num_leaves=8
num_cat=0
split_feature=2 78 17 80 72 42 74
split_gain=65.7148 37.5803 26.9006 19.6628 17.6235 14.111 7.96839
threshold=22.650000000000002 1.9600000000000002 13.550000000000002 3.5522500000000004 70.605000000000004 5.2750000000000012 205.50000000000003
decision_type=2 8 2 10 2 2 10
left_child=1 3 6 -1 -3 -4 -2
right_child=2 4 5 -5 -6 -7 -8
leaf_value=0.0013840057245634737 0.0016451219090905323 -0.003688082773264757 0.0012820226735550245 -0.0016377589163274692 -0.0010953172593018037 -0.0014238554378757922 0.0040549283801995656
leaf_weight=300 156 277 271 163 291 144 189
leaf_count=300 156 277 271 163 291 144 189
internal_value=0 -0.00117271 0.00155577 0.000283608 -0.0023896 0.000302307 0.00301443
internal_weight=0 1031 760 463 568 415 345
internal_count=1791 1031 760 463 568 415 345
is_linear=0
shrinkage=0.00704049


Tree=54
num_leaves=7
num_cat=0
split_feature=3 50 72 40 71 54
split_gain=65.8751 47.2889 32.9961 20.7885 11.5787 10.1784
threshold=39.850000000000001 1.0000000180025095e-35 96.40000000000002 30.500000000000004 4.4500000000000011 1.0000000180025095e-35
decision_type=2 2 2 2 2 2
left_child=1 2 -1 -3 -2 -6
right_child=4 3 -4 -5 5 -7
leaf_value=-0.0021519643467159794 -0.0013365621599088402 0.002070273074251225 0.00052640062709493447 -0.0040826803031701895 0.0015700435596310534 0.0044131219030995681
leaf_weight=794 25 330 307 28 136 171
leaf_count=794 25 330 307 28 136 171
internal_value=0 -0.000658862 -0.00138976 0.00154164 0.00281559 0.00320889
internal_weight=0 1459 1101 358 332 307
internal_count=1791 1459 1101 358 332 307
is_linear=0
shrinkage=0.00704049


Tree=55
num_leaves=8
num_cat=0
split_feature=3 20 40 76 78 73 42
split_gain=65.2387 30.4604 27.5529 22.1916 21.6606 10.0243 1.42287
threshold=18.700000000000006 4.2500000000000009 31.250000000000004 6.1950000000000012 1.6950000000000001 77.950000000000003 5.2750000000000012
decision_type=2 2 2 8 10 2 2
left_child=2 5 4 -3 -1 -2 -4
right_child=1 3 6 -5 -6 -7 -8
leaf_value=0.00080649188394319555 0.0035020309029805538 0.0013867334912143969 -0.0030482665623605726 -0.0010474675080559149 -0.0019452896092859973 -2.3718718273357766e-05 -0.006809100623594088
leaf_weight=193 263 433 29 319 469 36 49
leaf_count=193 263 433 29 319 469 36 49
internal_value=0 0.00111284 -0.0016159 0.000331626 -0.00111746 0.00302092 -0.00562847
internal_weight=0 1051 740 752 662 299 78
internal_count=1791 1051 740 752 662 299 78
is_linear=0
shrinkage=0.00704049


Tree=56
num_leaves=8
num_cat=0
split_feature=2 40 17 77 42 74 62
split_gain=63.642 35.7719 26.1824 22.1184 13.8516 7.87719 6.10768
threshold=22.650000000000002 31.250000000000004 13.550000000000002 1.675 5.2750000000000012 205.50000000000003 2.5000000000000004
decision_type=2 2 2 10 2 10 2
left_child=1 3 5 -1 -4 -2 -3
right_child=2 6 4 -5 -6 -7 -8
leaf_value=-0.0022788152104770117 0.0016088334955100974 -0.0014030161406049656 0.0012649800125252699 2.0252483688251041e-05 -0.0014160743589500427 0.0040039702133879453 -0.0063018868820979733
leaf_weight=299 156 27 271 631 144 189 74
leaf_count=299 156 27 271 631 144 189 74
internal_value=0 -0.00115406 0.00153105 -0.000700723 0.000293878 0.00297011 -0.00516018
internal_weight=0 1031 760 930 415 345 101
internal_count=1791 1031 760 930 415 345 101
is_linear=0
shrinkage=0.00704049


Tree=57
num_leaves=7
num_cat=0
split_feature=3 50 72 36 71 54
split_gain=63.9329 46.2583 32.1659 20.3151 11.3913 10.0006
threshold=39.850000000000001 1.0000000180025095e-35 96.40000000000002 30.500000000000004 4.4500000000000011 1.0000000180025095e-35
decision_type=2 2 2 2 2 2
left_child=1 2 -1 -3 -2 -6
right_child=4 3 -4 -5 5 -7
leaf_value=-0.0021246547261037172 -0.0013435709866268367 0.0020500774649425358 0.00051929947410659814 -0.0040301364061375161 0.0015388303413113034 0.0043578331525386512
leaf_weight=794 25 330 307 28 136 171
leaf_count=794 25 330 307 28 136 171
internal_value=0 -0.000649054 -0.00137205 0.00152713 0.00277379 0.00316427
internal_weight=0 1459 1101 358 332 307
internal_count=1791 1459 1101 358 332 307
is_linear=0
shrinkage=0.00704049


Tree=58
num_leaves=8
num_cat=0
split_feature=2 78 14 42 76 62 48
split_gain=62.322 35.7777 25.9368 19.5784 18.9202 16.8807 3.85808
threshold=22.650000000000002 1.9600000000000002 5.1000000000000005 5.2750000000000012 6.535000000000001 2.5000000000000004 1.0000000180025095e-35
decision_type=2 8 2 2 10 2 2
left_child=1 4 6 -4 -1 -3 -2
right_child=2 5 3 -5 -6 -7 -8
leaf_value=0.0013484310329734597 0.0026087708184756651 -0.0014629523740810363 0.0016964805209305266 -0.0010082209014654158 -0.0016238506797846277 -0.0042254668938552587 0.0052343711570059324
leaf_weight=302 111 396 372 198 161 172 79
leaf_count=302 111 396 372 198 161 172 79
internal_value=0 -0.00114191 0.00151521 0.000727249 0.000278293 -0.00232936 0.0037898
internal_weight=0 1031 760 570 463 568 190
internal_count=1791 1031 760 570 463 568 190
is_linear=0
shrinkage=0.00704049


Tree=59
num_leaves=8
num_cat=0
split_feature=3 50 60 62 40 50 72
split_gain=62.7659 30.2183 26.6299 25.9215 23.9091 11.2948 10.6681
threshold=18.700000000000006 1.0000000180025095e-35 23.210000000000004 2.5000000000000004 30.500000000000004 1.0000000180025095e-35 70.605000000000004
decision_type=2 2 2 2 2 2 2
left_child=2 3 6 -2 -3 -4 -1
right_child=1 4 5 -5 -6 -7 -8
leaf_value=-0.0039846974434172991 0.00099762235780409374 0.0042261359034230948 -0.0013272911671328678 -0.0024177289152401667 -0.0027077110208808194 0.0010857527053600672 -0.0012335262354782313
leaf_weight=219 696 201 223 129 25 164 134
leaf_count=219 696 201 223 129 25 164 134
internal_value=0 0.00109161 -0.00158491 0.00044304 0.00338412 -0.00026096 -0.00298837
internal_weight=0 1051 740 825 226 387 353
internal_count=1791 1051 740 825 226 387 353
is_linear=0
shrinkage=0.00704049


Tree=60
num_leaves=7
num_cat=0
split_feature=3 60 78 50 71 54
split_gain=62.0927 46.743 27.5737 22.361 14.9002 14.4368
threshold=35.95000000000001 24.130000000000006 1.4950000000000003 1.0000000180025095e-35 4.4500000000000011 1.0000000180025095e-35
decision_type=2 2 8 2 2 2
left_child=1 2 -1 -3 -2 -6
right_child=4 3 -4 -5 5 -7
leaf_value=0.0024366571407318394 -0.0021641769071588115 -0.00037641261488585378 -0.0024236060728220522 0.0023065831743570991 0.0011310715104242532 0.0039774609567095097
leaf_weight=60 30 402 657 242 186 214
leaf_count=60 30 402 657 242 186 214
internal_value=0 -0.000751121 -0.00199325 0.000605525 0.00231776 0.00269628
internal_weight=0 1361 717 644 430 400
internal_count=1791 1361 717 644 430 400
is_linear=0
shrinkage=0.00704049


Tree=61
num_leaves=8
num_cat=0
split_feature=3 50 40 62 36 78 42
split_gain=61.4712 29.4827 26.1536 25.4895 23.5408 20.4697 1.28582
threshold=18.700000000000006 1.0000000180025095e-35 31.250000000000004 2.5000000000000004 30.500000000000004 1.6950000000000001 5.2750000000000012
decision_type=2 2 2 2 2 10 2
left_child=2 3 5 -2 -3 -1 -4
right_child=1 4 6 -5 -6 -7 -8
leaf_value=0.00078662694980330373 0.00098943468418781185 0.0041808259900351355 -0.0029538125754182826 -0.0023971651793186699 -0.0026979230841764818 -0.0018871945476745245 -0.0066270064235554454
leaf_weight=193 696 201 29 129 25 469 49
leaf_count=193 696 201 29 129 25 469 49
internal_value=0 0.00108027 -0.00156849 0.000439348 0.0033449 -0.00108209 -0.00547895
internal_weight=0 1051 740 825 226 662 78
internal_count=1791 1051 740 825 226 662 78
is_linear=0
shrinkage=0.00704049


Tree=62
num_leaves=7
num_cat=0
split_feature=3 40 78 68 71 54
split_gain=60.9306 41.9262 31.0729 13.5179 11.0068 9.62642
threshold=39.850000000000001 31.250000000000004 1.6950000000000001 2.5000000000000004 4.4500000000000011 1.0000000180025095e-35
decision_type=2 2 8 10 2 2
left_child=1 2 -1 -3 -2 -6
right_child=4 3 -4 -5 5 -7
leaf_value=0.0013250490315385658 -0.0013341328039569054 -0.0060523534338767521 -0.00098577462837680005 -0.00085269220739151266 0.0014944277128214271 0.0042638485580584308
leaf_weight=420 25 88 905 46 136 171
leaf_count=420 25 88 905 46 136 171
internal_value=0 -0.000633605 -0.000240505 -0.00439394 0.00270791 0.00309224
internal_weight=0 1459 1325 134 332 307
internal_count=1791 1459 1325 134 332 307
is_linear=0
shrinkage=0.00704049


Tree=63
num_leaves=8
num_cat=0
split_feature=3 20 60 76 36 72 73
split_gain=60.1794 29.0015 25.5006 21.258 13.9979 10.397 9.67548
threshold=18.700000000000006 4.2500000000000009 23.210000000000004 6.1950000000000012 26.500000000000004 70.605000000000004 77.950000000000003
decision_type=2 2 2 8 2 2 2
left_child=2 6 5 -3 -4 -1 -2
right_child=1 3 4 -5 -6 -7 -8
leaf_value=-0.0039089006854627108 0.0034037129687734427 0.0013393126256899036 0.001227171396097183 -0.0010435716466025728 -0.0014578555771545493 -0.001191973923622377 -5.7754517823023877e-05
leaf_weight=219 263 433 167 319 220 134 36
leaf_count=219 263 433 167 319 220 134 36
internal_value=0 0.00106871 -0.00155207 0.000305973 -0.000255451 -0.00292557 0.00293034
internal_weight=0 1051 740 752 387 353 299
internal_count=1791 1051 740 752 387 353 299
is_linear=0
shrinkage=0.00704049


Tree=64
num_leaves=8
num_cat=0
split_feature=2 78 14 72 58 50 45
split_gain=58.46 33.765 25.071 20.954 19.0422 16.2909 3.85406
threshold=22.650000000000002 2.0300000000000007 5.1000000000000005 70.605000000000004 164.50000000000003 1.5000000000000002 124.00000000000001
decision_type=2 8 2 2 2 2 2
left_child=1 4 6 -3 -1 -4 -2
right_child=2 3 5 -5 -6 -7 -8
leaf_value=0.0018874124702314202 0.0028339279987633728 -0.0040197207442919476 0.00039324660999533721 -0.00083296382672365821 -0.00085113174505728755 0.0060743591366120685 0.005739613759941746
leaf_weight=183 139 237 543 208 403 27 51
leaf_count=183 139 237 543 208 403 27 51
internal_value=0 -0.00110621 0.00146725 -0.00256828 0 0.000692161 0.00370325
internal_weight=0 1031 760 445 586 570 190
internal_count=1791 1031 760 445 586 570 190
is_linear=0
shrinkage=0.00704049


Tree=65
num_leaves=7
num_cat=0
split_feature=3 60 50 40 71 1
split_gain=59.1643 43.0764 27.0765 18.2815 10.8394 8.67746
threshold=39.850000000000001 22.915000000000003 1.0000000180025095e-35 31.750000000000004 4.4500000000000011 53.850000000000009
decision_type=2 2 2 2 2 2
left_child=1 3 -3 -1 -2 -6
right_child=4 2 -4 -5 5 -7
leaf_value=-0.0014380753476452483 -0.0013420673704167671 -0.00050918365142321688 0.0021604875618220936 -0.0049095421893896379 0.003917151460854318 0.0011140064033779136
leaf_weight=568 25 501 296 94 206 101
leaf_count=568 25 501 296 94 206 101
internal_value=0 -0.000624328 0.000461085 -0.00195665 0.00266839 0.00305016
internal_weight=0 1459 797 662 332 307
internal_count=1791 1459 797 662 332 307
is_linear=0
shrinkage=0.00704049


Tree=66
num_leaves=8
num_cat=0
split_feature=3 50 40 36 3 78 42
split_gain=58.4214 28.4127 24.8158 23.0149 22.573 19.3676 1.09152
threshold=18.700000000000006 1.0000000180025095e-35 31.250000000000004 30.500000000000004 39.850000000000001 1.6950000000000001 5.2750000000000012
decision_type=2 2 2 2 2 10 2
left_child=2 4 5 -3 -2 -1 -4
right_child=1 3 6 -5 -6 -7 -8
leaf_value=0.00076138129383946382 -0.00033864720791800738 0.0041034638437040614 -0.0028830602340573089 -0.0026972337645081289 0.0021541694374798692 -0.0018379721230762523 -0.0064473887475621989
leaf_weight=193 566 201 29 25 259 469 49
leaf_count=193 566 201 29 25 259 469 49
internal_value=0 0.00105301 -0.00152921 0.00327617 0.000423442 -0.00105458 -0.00533979
internal_weight=0 1051 740 226 825 662 78
internal_count=1791 1051 740 226 825 662 78
is_linear=0
shrinkage=0.00704049


Tree=67
num_leaves=7
num_cat=0
split_feature=3 60 78 50 71 54
split_gain=57.6671 43.896 26.1207 20.9393 14.3348 13.901
threshold=35.95000000000001 24.130000000000006 1.4950000000000003 1.0000000180025095e-35 4.4500000000000011 1.0000000180025095e-35
decision_type=2 2 8 2 2 2
left_child=1 2 -1 -3 -2 -6
right_child=4 3 -4 -5 5 -7
leaf_value=0.0023806439937406176 -0.0021613048815648053 -0.00035888982327449988 -0.0023472021673567444 0.0022363838982326664 0.0010685014909914711 0.0038620896583036963
leaf_weight=60 30 402 657 242 186 214
leaf_count=60 30 402 657 242 186 214
internal_value=0 -0.000724014 -0.00192792 0.000590084 0.00223348 0.00260546
internal_weight=0 1361 717 644 430 400
internal_count=1791 1361 717 644 430 400
is_linear=0
shrinkage=0.00704049


Tree=68
num_leaves=8
num_cat=0
split_feature=3 20 40 76 78 73 42
split_gain=57.2168 28.0015 24.3405 20.5518 18.8729 9.43316 1.05788
threshold=18.700000000000006 4.2500000000000009 31.250000000000004 6.1950000000000012 1.6950000000000001 77.950000000000003 5.2750000000000012
decision_type=2 2 2 8 10 2 2
left_child=2 5 4 -3 -1 -2 -4
right_child=1 3 6 -5 -6 -7 -8
leaf_value=0.00074873874112663737 0.003339107343536337 0.0013087016678091817 -0.0028476976439364148 -0.0010343921723929271 -0.0018164426919140475 -7.6382074142802088e-05 -0.0063854840375492435
leaf_weight=193 263 433 29 319 469 36 49
leaf_count=193 263 433 29 319 469 36 49
internal_value=0 0.00104208 -0.00151338 0.000292242 -0.00104301 0.00287127 -0.00528775
internal_weight=0 1051 740 752 662 299 78
internal_count=1791 1051 740 752 662 299 78
is_linear=0
shrinkage=0.00704049


Tree=69
num_leaves=7
num_cat=0
split_feature=3 60 50 40 71 54
split_gain=56.4767 41.3326 25.9986 17.5366 10.5469 9.27719
threshold=39.850000000000001 22.915000000000003 1.0000000180025095e-35 31.750000000000004 4.4500000000000011 1.0000000180025095e-35
decision_type=2 2 2 2 2 2
left_child=1 3 -3 -1 -2 -6
right_child=4 2 -4 -5 5 -7
leaf_value=-0.0014066097108971479 -0.0013466535118035194 -0.00049749824359951076 0.0021181346063330088 -0.004808963058712935 0.0014143084232822183 0.0041332656854704986
leaf_weight=568 25 501 296 94 136 171
leaf_count=568 25 501 296 94 136 171
internal_value=0 -0.000610177 0.000452701 -0.00191537 0.00260688 0.00298401
internal_weight=0 1459 797 662 332 307
internal_count=1791 1459 797 662 332 307
is_linear=0
shrinkage=0.00704049


Tree=70
num_leaves=8
num_cat=0
split_feature=3 14 60 76 47 73 72
split_gain=56.1145 26.5293 25.0664 18.6924 14.898 10.3542 10.1579
threshold=20.250000000000004 5.9500000000000002 23.210000000000004 6.1950000000000012 1.5000000000000002 77.950000000000003 69.750000000000014
decision_type=2 2 2 8 2 2 2
left_child=2 5 6 -3 -4 -2 -1
right_child=1 3 4 -5 -6 -7 -8
leaf_value=-0.0036685773177978788 0.0037840193522280991 0.0014056225219004792 -0.0020417364793804335 -0.00082893647348416871 0.0007226288684705766 0 -0.0011066035595610319
leaf_weight=231 203 432 145 316 282 33 149
leaf_count=231 203 432 145 316 282 33 149
internal_value=0 0.00111473 -0.00138981 0.000438978 -0.000176467 0.00318465 -0.00270863
internal_weight=0 984 807 748 427 236 380
internal_count=1791 984 807 748 427 236 380
is_linear=0
shrinkage=0.00704049


Tree=71
num_leaves=8
num_cat=0
split_feature=3 50 62 40 36 78 42
split_gain=55.3534 27.3544 24.3812 23.6207 22.4523 18.3257 0.942894
threshold=18.700000000000006 1.0000000180025095e-35 2.5000000000000004 31.250000000000004 30.500000000000004 1.6950000000000001 5.2750000000000012
decision_type=2 2 2 2 2 10 2
left_child=3 2 -2 5 -3 -1 -5
right_child=1 4 -4 6 -6 -7 -8
leaf_value=0.00073980147236773033 0.00094513402594449734 0.0040239548206444358 -0.002367641254251463 -0.0028090012552246962 -0.0026918768182715184 -0.0017873024556493062 -0.0062808633720033806
leaf_weight=193 696 201 129 29 25 469 49
leaf_count=193 696 201 129 29 25 469 49
internal_value=0 0.0010247 0.000406591 -0.00148879 0.00320605 -0.00102497 -0.00520763
internal_weight=0 1051 825 740 226 662 78
internal_count=1791 1051 825 740 226 662 78
is_linear=0
shrinkage=0.00704049


Tree=72
num_leaves=7
num_cat=0
split_feature=3 60 50 40 71 54
split_gain=54.9167 40.0779 25.288 16.936 10.3745 9.0839
threshold=39.850000000000001 22.915000000000003 1.0000000180025095e-35 31.750000000000004 4.4500000000000011 1.0000000180025095e-35
decision_type=2 2 2 2 2 2
left_child=1 3 -3 -1 -2 -6
right_child=4 2 -4 -5 5 -7
leaf_value=-0.0013864716248599036 -0.0013492485416022151 -0.00049234741458694905 0.0020871369796085933 -0.0047323710427879867 0.0013898829751618779 0.0040822202821063679
leaf_weight=568 25 501 296 94 136 171
leaf_count=568 25 501 296 94 136 171
internal_value=0 -0.000601922 0.000444426 -0.00188721 0.00257039 0.00294476
internal_weight=0 1459 797 662 332 307
internal_count=1791 1459 797 662 332 307
is_linear=0
shrinkage=0.00704049


Tree=73
num_leaves=8
num_cat=0
split_feature=3 42 76 78 36 72 76
split_gain=54.2799 28.2478 45.407 25.3961 19.8768 12.0059 10.8206
threshold=20.250000000000004 5.2750000000000012 6.495000000000001 1.9600000000000002 30.500000000000004 70.605000000000004 6.535000000000001
decision_type=2 2 8 8 2 2 10
left_child=3 2 -2 6 -3 -5 -1
right_child=1 4 -4 5 -6 -7 -8
leaf_value=0.00097522094521055387 0.0035018274203882076 0.00021617430293262416 -0.00030511535307851278 -0.003658396233589498 -0.0042877150456158758 -0.0012454743783458094 -0.0016832275357589943
leaf_weight=228 386 294 247 223 57 243 113
leaf_count=228 386 294 247 223 57 243 113
internal_value=0 0.00109608 0.00198961 -0.00136717 -0.000467098 -0.00243654 4.45951e-05
internal_weight=0 984 633 807 351 466 341
internal_count=1791 984 633 807 351 466 341
is_linear=0
shrinkage=0.00704049


Tree=74
num_leaves=7
num_cat=0
split_feature=3 60 78 50 71 54
split_gain=53.7611 41.0198 24.8361 19.6462 13.6973 13.1382
threshold=35.95000000000001 24.130000000000006 1.4950000000000003 1.0000000180025095e-35 4.4500000000000011 1.0000000180025095e-35
decision_type=2 2 8 2 2 2
left_child=1 2 -1 -3 -2 -6
right_child=4 3 -4 -5 5 -7
leaf_value=0.0023353552412095956 -0.0021361937638417735 -0.00034789518167364556 -0.002272701278628365 0.0021651882407200127 0.0010231325410607669 0.0037425370714900298
leaf_weight=60 30 402 657 242 186 214
leaf_count=60 30 402 657 242 186 214
internal_value=0 -0.000699459 -0.00186345 0.000570192 0.0021561 0.0025204
internal_weight=0 1361 717 644 430 400
internal_count=1791 1361 717 644 430 400
is_linear=0
shrinkage=0.00704049


Tree=75
num_leaves=8
num_cat=0
split_feature=3 20 40 42 78 73 42
split_gain=53.1984 26.8944 22.7612 19.4539 17.5261 9.05832 0.854182
threshold=18.700000000000006 4.2500000000000009 31.250000000000004 5.2750000000000012 1.6950000000000001 77.950000000000003 5.2750000000000012
decision_type=2 2 2 2 10 2 2
left_child=2 5 4 -3 -1 -2 -4
right_child=1 3 6 -5 -6 -7 -8
leaf_value=0.00072063151782898835 0.0032556227318441596 0.0011253232745502258 -0.0027509299330183549 -0.0012313559154428174 -0.0017495207340798545 -8.4795746610848019e-05 -0.0061615923352252751
leaf_weight=193 263 486 29 266 469 36 49
leaf_count=193 263 486 29 266 469 36 49
internal_value=0 0.00100441 -0.00145967 0.000269191 -0.0010038 0.00279682 -0.0051111
internal_weight=0 1051 740 752 662 299 78
internal_count=1791 1051 740 752 662 299 78
is_linear=0
shrinkage=0.00704049


Tree=76
num_leaves=7
num_cat=0
split_feature=3 60 78 50 71 54
split_gain=52.634 38.4751 25.3003 20.274 9.999 8.71858
threshold=39.850000000000001 24.130000000000006 1.4950000000000003 1.0000000180025095e-35 4.4500000000000011 1.0000000180025095e-35
decision_type=2 2 8 2 2 2
left_child=1 2 -1 -3 -2 -6
right_child=4 3 -4 -5 5 -7
leaf_value=0.0024903782451670556 -0.0013244994681416372 -0.00030508499299823156 -0.0020570349310150217 0.002167733316333366 0.0013570865065092204 0.0039995327540337479
leaf_weight=63 25 422 714 260 136 171
leaf_count=63 25 422 714 260 136 171
internal_value=0 -0.000589447 -0.00166651 0.000612826 0.00251623 0.00288417
internal_weight=0 1459 777 682 332 307
internal_count=1791 1459 777 682 332 307
is_linear=0
shrinkage=0.00704049


Tree=77
num_leaves=8
num_cat=0
split_feature=3 20 40 76 78 73 42
split_gain=52.1626 26.4204 22.3311 19.2072 17.0818 8.92828 0.824199
threshold=18.700000000000006 4.2500000000000009 31.250000000000004 6.1950000000000012 1.6950000000000001 77.950000000000003 5.2750000000000012
decision_type=2 2 2 8 10 2 2
left_child=2 5 4 -3 -1 -2 -4
right_child=1 3 6 -5 -6 -7 -8
leaf_value=0.00070799185865376717 0.0032267688677712521 0.0012491639573368905 -0.0027183672853974125 -0.0010162558657891242 -0.0017298588331852818 -8.7183973124532759e-05 -0.006103741440969198
leaf_weight=193 263 433 29 319 469 36 49
leaf_count=193 263 433 29 319 469 36 49
internal_value=0 0.000994575 -0.0014454 0.000265653 -0.000993551 0.00277115 -0.00506264
internal_weight=0 1051 740 752 662 299 78
internal_count=1791 1051 740 752 662 299 78
is_linear=0
shrinkage=0.00704049


Tree=78
num_leaves=7
num_cat=0
split_feature=3 60 78 50 40 76
split_gain=51.5185 39.4668 23.8858 18.9794 13.3996 10.3222
threshold=35.95000000000001 24.130000000000006 1.4950000000000003 1.0000000180025095e-35 31.250000000000004 6.495000000000001
decision_type=2 2 8 2 2 8
left_child=1 2 -1 -3 5 -2
right_child=4 3 -4 -5 -6 -7
leaf_value=0.0022884467406390362 0.0034169349321969736 -0.0003414931737529092 -0.0022282190436418063 0.0021281264473860181 -0.0016184456043719846 0.0008625927169265635
leaf_weight=60 247 402 657 242 38 145
leaf_count=60 247 402 657 242 38 145
internal_value=0 -0.000684753 -0.00182661 0.000560261 0.00211061 0.00251533
internal_weight=0 1361 717 644 430 392
internal_count=1791 1361 717 644 430 392
is_linear=0
shrinkage=0.00704049


Tree=79
num_leaves=8
num_cat=0
split_feature=3 17 40 42 50 73 42
split_gain=51.0871 25.9837 21.9039 20.4205 16.6658 10.35 0.795451
threshold=18.700000000000006 2.0500000000000003 31.250000000000004 5.2750000000000012 1.0000000180025095e-35 77.950000000000003 5.2750000000000012
decision_type=2 2 2 2 2 2 2
left_child=2 5 4 -3 -1 -2 -4
right_child=1 3 6 -5 -6 -7 -8
leaf_value=-0.0017151622204754713 0.0034643112810026477 0.0011717306364545188 -0.0026849271237214291 -0.0011888727038705318 0.00068486379577474695 -0.00022697579995887974 -0.0060450931600161779
leaf_weight=467 228 511 29 277 195 35 49
leaf_count=467 228 511 29 277 195 35 49
internal_value=0 0.000984251 -0.00143044 0.000320434 -0.000982631 0.00290871 -0.00501336
internal_weight=0 1051 740 788 662 263 78
internal_count=1791 1051 740 788 662 263 78
is_linear=0
shrinkage=0.00704049


Tree=80
num_leaves=7
num_cat=0
split_feature=3 60 78 50 71 54
split_gain=50.4728 37.0167 24.4002 19.5112 9.79642 8.50376
threshold=39.850000000000001 24.130000000000006 1.4950000000000003 1.0000000180025095e-35 4.4500000000000011 1.0000000180025095e-35
decision_type=2 2 8 2 2 2
left_child=1 2 -1 -3 -2 -6
right_child=4 3 -4 -5 5 -7
leaf_value=0.0024464322463433165 -0.0013372267890522978 -0.00029812468906856662 -0.002017590356349794 0.0021271901439769937 0.0013191689364900408 0.0039301326751246743
leaf_weight=63 25 422 714 260 136 171
leaf_count=63 25 422 714 260 136 171
internal_value=0 -0.000577254 -0.00163382 0.000601676 0.00246399 0.00282872
internal_weight=0 1459 777 682 332 307
internal_count=1791 1459 777 682 332 307
is_linear=0
shrinkage=0.00704049


Tree=81
num_leaves=8
num_cat=0
split_feature=3 42 76 78 36 72 76
split_gain=50.1237 26.8627 43.1011 23.622 19.2642 11.2375 10.1709
threshold=20.250000000000004 5.2750000000000012 6.495000000000001 1.9600000000000002 30.500000000000004 70.605000000000004 6.535000000000001
decision_type=2 2 8 8 2 2 10
left_child=3 2 -2 6 -3 -5 -1
right_child=1 4 -4 5 -6 -7 -8
leaf_value=0.00094970950631758397 0.003398461778430271 0.00020119840918090423 -0.00030943561688864444 -0.0035282489641740447 -0.0042312592363237811 -0.0011898648267480503 -0.0016272072567558367
leaf_weight=228 386 294 247 223 57 243 113
leaf_count=228 386 294 247 223 57 243 113
internal_value=0 0.00105325 0.00192489 -0.00131382 -0.000470473 -0.00234526 4.61024e-05
internal_weight=0 984 633 807 351 466 341
internal_count=1791 984 633 807 351 466 341
is_linear=0
shrinkage=0.00704049


Tree=82
num_leaves=8
num_cat=0
split_feature=3 20 40 42 78 73 42
split_gain=49.4451 25.4846 21.346 18.4967 16.1806 8.58586 0.756164
threshold=18.700000000000006 4.2500000000000009 31.250000000000004 5.2750000000000012 1.6950000000000001 77.950000000000003 5.2750000000000012
decision_type=2 2 2 2 10 2 2
left_child=2 5 4 -3 -1 -2 -4
right_child=1 3 6 -5 -6 -7 -8
leaf_value=0.00068950897066844539 0.0031598235733398083 0.0010873241299443053 -0.0026384320151203941 -0.001210792349376863 -0.0016818826769031386 -8.1867053644742247e-05 -0.0059635046281592986
leaf_weight=193 263 486 29 266 469 36 49
leaf_count=193 263 486 29 266 469 36 49
internal_value=0 0.000968169 -0.00140739 0.000251907 -0.00096495 0.00271291 -0.00494481
internal_weight=0 1051 740 752 662 299 78
internal_count=1791 1051 740 752 662 299 78
is_linear=0
shrinkage=0.00704049


Tree=83
num_leaves=7
num_cat=0
split_feature=3 60 62 50 40 41
split_gain=48.9602 36.0406 22.1451 19.1115 9.65838 8.83353
threshold=39.850000000000001 24.130000000000006 2.5000000000000004 1.0000000180025095e-35 31.250000000000004 26.500000000000004
decision_type=2 2 2 2 2 2
left_child=1 2 -1 -3 5 -2
right_child=4 3 -4 -5 -6 -7
leaf_value=-0.00092332052747848444 0 -0.00029579804424698238 -0.0038148863205940352 0.0021043111096278712 -0.00092400729220869769 0.0033337344299127058
leaf_weight=598 45 422 179 260 31 256
leaf_count=598 45 422 179 260 31 256
internal_value=0 -0.000568658 -0.00161129 0.000594393 0.00242666 0.00282801
internal_weight=0 1459 777 682 332 301
internal_count=1791 1459 777 682 332 301
is_linear=0
shrinkage=0.00704049


Tree=84
num_leaves=8
num_cat=0
split_feature=3 14 78 69 72 40 73
split_gain=48.4577 24.3915 22.9012 17.2844 10.9109 9.9623 9.44065
threshold=20.250000000000004 5.9500000000000002 1.9600000000000002 4.1000000000000005 70.605000000000004 30.500000000000004 77.950000000000003
decision_type=2 2 8 2 2 2 2
left_child=2 6 5 -3 -4 -1 -2
right_child=1 3 4 -5 -6 -7 -8
leaf_value=0.00062225324547325784 0.0035923578963982503 -0.0027712692038442169 -0.0034738915687205149 0.000763602604586113 -0.0011678388343739203 -0.0026413705945635053 0
leaf_weight=286 203 75 223 673 243 55 33
leaf_count=286 203 75 223 673 243 55 33
internal_value=0 0.00103524 -0.00129214 0.000386502 -0.00230776 4.61483e-05 0.00301957
internal_weight=0 984 807 748 466 341 236
internal_count=1791 984 807 748 466 341 236
is_linear=0
shrinkage=0.00704049


Tree=85
num_leaves=7
num_cat=0
split_feature=3 60 63 69 40 54
split_gain=47.9466 37.0267 18.6374 18.0815 12.8829 9.73014
threshold=35.95000000000001 24.130000000000006 1.5000000000000002 5.2800000000000002 31.250000000000004 1.0000000180025095e-35
decision_type=2 2 2 2 2 2
left_child=1 2 -1 -3 5 -2
right_child=4 3 -4 -5 -6 -7
leaf_value=-0.0026294730626687992 0.0010264188952413831 0.0011491635505378895 -0.0001956316015883181 -0.0017842901895913695 -0.0016191065557795254 0.0034451573175092857
leaf_weight=456 171 517 261 127 38 221
leaf_count=456 171 517 261 127 38 221
internal_value=0 -0.000660946 -0.00176714 0.000544363 0.00203577 0.00243329
internal_weight=0 1361 717 644 430 392
internal_count=1791 1361 717 644 430 392
is_linear=0
shrinkage=0.00704049


Tree=86
num_leaves=8
num_cat=0
split_feature=3 50 62 36 40 78 42
split_gain=47.4672 24.8968 22.429 21.0711 20.5273 15.6083 0.715768
threshold=18.700000000000006 1.0000000180025095e-35 2.5000000000000004 30.500000000000004 31.250000000000004 1.6950000000000001 5.2750000000000012
decision_type=2 2 2 2 2 10 2
left_child=4 2 -2 -3 5 -1 -6
right_child=1 3 -4 -5 6 -7 -8
leaf_value=0.00067910280777321236 0.00087518143517436035 0.0038233671290255882 -0.0023029560493458851 -0.0026799739938384581 -0.0025702366841409106 -0.0016492050648440773 -0.005851713236161158
leaf_weight=193 696 201 129 25 29 469 49
leaf_count=193 696 201 129 25 29 469 49
internal_value=0 0.000948238 0.000357691 0.00302897 -0.00137932 -0.000944833 -0.00484922
internal_weight=0 1051 825 226 740 662 78
internal_count=1791 1051 825 226 740 662 78
is_linear=0
shrinkage=0.00704049


Tree=87
num_leaves=7
num_cat=0
split_feature=3 50 72 40 71 1
split_gain=47.0542 34.7577 27.314 17.6495 9.40359 8.42377
threshold=39.850000000000001 1.0000000180025095e-35 96.40000000000002 30.500000000000004 4.4500000000000011 53.850000000000009
decision_type=2 2 2 2 2 2
left_child=1 2 -1 -3 -2 -6
right_child=4 3 -4 -5 5 -7
leaf_value=-0.0018801956678241333 -0.0013421917935898127 0.0018162657772375398 0.0005555202918594138 -0.0038507850803242137 0.0035834568624296061 0.00084206249320642132
leaf_weight=794 25 330 307 28 206 101
leaf_count=794 25 330 307 28 206 101
internal_value=0 -0.000557836 -0.00118565 0.00132564 0.00237859 0.00273677
internal_weight=0 1459 1101 358 332 307
internal_count=1791 1459 1101 358 332 307
is_linear=0
shrinkage=0.00704049


Tree=88
num_leaves=8
num_cat=0
split_feature=3 17 72 42 50 73 36
split_gain=46.5874 24.56 20.1252 19.1102 11.6762 9.79471 6.81433
threshold=18.700000000000006 2.0500000000000003 79.245000000000019 5.2750000000000012 1.0000000180025095e-35 77.950000000000003 26.500000000000004
decision_type=2 2 2 2 2 2 2
left_child=2 5 4 -3 -1 -2 -4
right_child=1 3 6 -5 -6 -7 -8
leaf_value=-0.0029845241556631032 0.0033511888591652964 0.0011178261168222452 0.0014162224197687015 -0.001166020387978499 0 -0.00023050214820212255 -0.00075342844319639462
leaf_weight=332 228 511 102 277 70 35 236
leaf_count=332 228 511 102 277 70 35 236
internal_value=0 0.000939407 -0.00136648 0.000293512 -0.00243243 0.00281017 -4.85684e-05
internal_weight=0 1051 740 788 402 263 338
internal_count=1791 1051 740 788 402 263 338
is_linear=0
shrinkage=0.00704049


Tree=89
num_leaves=7
num_cat=0
split_feature=3 50 72 36 71 1
split_gain=46.0234 34.0419 26.7561 17.3534 9.26141 8.28858
threshold=39.850000000000001 1.0000000180025095e-35 96.40000000000002 30.500000000000004 4.4500000000000011 53.850000000000009
decision_type=2 2 2 2 2 2
left_child=1 2 -1 -3 -2 -6
right_child=4 3 -4 -5 5 -7
leaf_value=-0.0018604732742981351 -0.0013379559463050116 0.0017989659785696754 0.00054986592403851006 -0.0038192809484174756 0.003548065578897126 0.00082739056362926024
leaf_weight=794 25 330 307 28 206 101
leaf_count=794 25 330 307 28 206 101
internal_value=0 -0.000551601 -0.001173 0.00131216 0.00235249 0.0027082
internal_weight=0 1459 1101 358 332 307
internal_count=1791 1459 1101 358 332 307
is_linear=0
shrinkage=0.00704049


Tree=90
num_leaves=8
num_cat=0
split_feature=3 17 40 42 78 73 42
split_gain=45.7129 24.1103 19.8898 18.772 14.9945 9.63704 0.712247
threshold=18.700000000000006 2.0500000000000003 31.250000000000004 5.2750000000000012 1.6950000000000001 77.950000000000003 5.2750000000000012
decision_type=2 2 2 2 10 2 2
left_child=2 5 4 -3 -1 -2 -4
right_child=1 3 6 -5 -6 -7 -8
leaf_value=0.00066515576764802746 0.0033210377782672777 0.0011076290132691431 -0.0025058469837274506 -0.0011558179309422662 -0.0016159294531747244 -0.00022858476159464685 -0.00576318475087996
leaf_weight=193 228 511 29 277 469 35 49
leaf_count=193 228 511 29 277 469 35 49
internal_value=0 0.000930661 -0.00135348 0.000290485 -0.000925325 0.00278429 -0.00476966
internal_weight=0 1051 740 788 662 263 78
internal_count=1791 1051 740 788 662 263 78
is_linear=0
shrinkage=0.00704049


Tree=91
num_leaves=8
num_cat=0
split_feature=3 42 76 78 36 62 76
split_gain=45.115 24.9659 41.2748 21.4513 18.2535 10.257 9.56936
threshold=20.250000000000004 5.2750000000000012 6.495000000000001 1.9600000000000002 30.500000000000004 2.5000000000000004 6.535000000000001
decision_type=2 2 8 8 2 2 10
left_child=3 2 -2 6 -3 -5 -1
right_child=1 4 -4 5 -6 -7 -8
leaf_value=0.00092463162089687762 0.0032820495055834245 0.00018304184042281649 -0.00034654079608493479 -0.0014641053650740377 -0.0041295474860503665 -0.003909616518709174 -0.0015744748158527126
leaf_weight=228 386 294 247 327 57 139 113
leaf_count=228 386 294 247 327 57 139 113
internal_value=0 0.000998733 0.00183943 -0.00124694 -0.000469161 -0.00222996 4.681e-05
internal_weight=0 984 633 807 351 466 341
internal_count=1791 984 633 807 351 466 341
is_linear=0
shrinkage=0.00704049


Tree=92
num_leaves=8
num_cat=0
split_feature=2 40 17 78 69 50 62
split_gain=44.3466 26.2044 21.8276 19.0844 11.9087 8.17051 4.84122
threshold=22.650000000000002 31.250000000000004 13.550000000000002 1.9600000000000002 4.1000000000000005 1.0000000180025095e-35 2.5000000000000004
decision_type=2 2 2 8 2 2 2
left_child=1 3 5 -1 -4 -2 -3
right_child=2 6 4 -5 -6 -7 -8
leaf_value=0.00046158920806151684 0.00185716783878956 -0.00099135984138754431 -0.0031345552381294582 -0.0015372612384901179 0.00061056961216248708 0.004628141600634004 -0.0054089289927443532
leaf_weight=440 260 27 47 490 368 85 74
leaf_count=440 260 27 47 490 368 85 74
internal_value=0 -0.000964292 0.00127708 -0.000573369 0.000145558 0.00258906 -0.00439583
internal_weight=0 1031 760 930 415 345 101
internal_count=1791 1031 760 930 415 345 101
is_linear=0
shrinkage=0.00704049


Tree=93
num_leaves=7
num_cat=0
split_feature=3 50 62 59 40 76
split_gain=44.329 33.5879 21.4158 15.6215 12.4359 9.49526
threshold=35.95000000000001 1.0000000180025095e-35 2.5000000000000004 58.250000000000007 31.250000000000004 6.495000000000001
decision_type=2 2 2 2 2 8
left_child=1 2 -1 -3 5 -2
right_child=4 3 -4 -5 -6 -7
leaf_value=-0.00071673382096029204 0.0032125678041915514 -0.0025166427638403949 -0.0032442908792395552 0.001897700610501178 -0.0016336634404475003 0.0007601810916033103
leaf_weight=807 247 43 220 291 38 145
leaf_count=807 247 43 220 291 38 145
internal_value=0 -0.000635639 -0.00127469 0.00127864 0.00195734 0.00234867
internal_weight=0 1361 1027 334 430 392
internal_count=1791 1361 1027 334 430 392
is_linear=0
shrinkage=0.00704049


Tree=94
num_leaves=7
num_cat=0
split_feature=3 60 78 69 40 41
split_gain=43.7548 33.0303 22.4321 17.3283 8.99672 8.47232
threshold=39.850000000000001 24.130000000000006 1.4950000000000003 5.2800000000000002 31.250000000000004 26.500000000000004
decision_type=2 2 8 2 2 2
left_child=1 2 -1 -3 5 -2
right_child=4 3 -4 -5 -6 -7
leaf_value=0.0023727005417559185 0 0.0011429651122620902 -0.0019050936381522421 -0.0016644423231892077 -0.00093316013746488631 0.0031779490458107582
leaf_weight=63 45 550 714 132 31 256
leaf_count=63 45 550 714 132 31 256
internal_value=0 -0.000537969 -0.00153643 0.000574754 0.00229364 0.00268223
internal_weight=0 1459 777 682 332 301
internal_count=1791 1459 777 682 332 301
is_linear=0
shrinkage=0.00704049


Tree=95
num_leaves=8
num_cat=0
split_feature=3 20 72 76 78 73 73
split_gain=43.4403 23.3314 19.052 17.4736 8.85565 7.93135 6.596
threshold=18.700000000000006 4.2500000000000009 79.245000000000019 6.1950000000000012 1.7150000000000001 77.950000000000003 77.950000000000003
decision_type=2 2 2 8 10 2 2
left_child=2 5 4 -3 -1 -2 -4
right_child=1 3 6 -5 -6 -7 -8
leaf_value=-0.00012221169842671623 0.0030064433110013984 0.0011602595792749824 0.00020842497620680286 -0.0010013560898214724 -0.00290230445759061 -9.6812023263582474e-05 -0.0033477673785599375
leaf_weight=85 263 433 310 319 317 36 28
leaf_count=85 263 433 310 319 317 36 28
internal_value=0 0.000907004 -0.00131963 0.000220782 -0.00235661 0.00257619 -3.61759e-05
internal_weight=0 1051 740 752 402 299 338
internal_count=1791 1051 740 752 402 299 338
is_linear=0
shrinkage=0.00704049


Tree=96
num_leaves=7
num_cat=0
split_feature=3 60 78 69 71 54
split_gain=42.836 33.8573 21.1137 16.8865 12.234 11.7224
threshold=35.95000000000001 24.130000000000006 1.4950000000000003 5.2800000000000002 4.4500000000000011 1.0000000180025095e-35
decision_type=2 2 8 2 2 2
left_child=1 2 -1 -3 -2 -6
right_child=4 3 -4 -5 5 -7
leaf_value=0.0021797210581825182 -0.0021304183126977768 0.0011118930817723485 -0.0020616962300435229 -0.0017218360996743916 0.00085305546064544401 0.0034230265212241563
leaf_weight=60 30 517 657 127 186 214
leaf_count=60 30 517 657 127 186 214
internal_value=0 -0.000625014 -0.00168313 0.000526759 0.00192392 0.00227037
internal_weight=0 1361 717 644 430 400
internal_count=1791 1361 717 644 430 400
is_linear=0
shrinkage=0.00704049


Tree=97
num_leaves=8
num_cat=0
split_feature=3 50 62 36 40 78 59
split_gain=42.5313 23.2182 20.9027 19.896 18.8001 13.9594 0.583319
threshold=18.700000000000006 1.0000000180025095e-35 2.5000000000000004 30.500000000000004 31.250000000000004 1.6950000000000001 58.750000000000007
decision_type=2 2 2 2 2 10 2
left_child=4 2 -2 -3 5 -1 -6
right_child=1 3 -4 -5 6 -7 -8
leaf_value=0.00064388069356350632 0.00082683313958600553 0.0036800176841863571 -0.0022415794066016964 -0.0026335057233733772 -0.0055858367252663091 -0.0015554757324091216 -0.0024242806006716014
leaf_weight=193 696 201 129 25 49 469 29
leaf_count=193 696 201 129 25 49 469 29
internal_value=0 0.000897444 0.000326501 0.00290662 -0.00130577 -0.000888699 -0.0046279
internal_weight=0 1051 825 226 740 662 78
internal_count=1791 1051 825 226 740 662 78
is_linear=0
shrinkage=0.00704049


Tree=98
num_leaves=7
num_cat=0
split_feature=3 40 50 62 40 41
split_gain=42.0168 31.7055 27.3927 10.5156 8.75712 8.29708
threshold=39.850000000000001 31.250000000000004 1.0000000180025095e-35 2.5000000000000004 31.250000000000004 26.500000000000004
decision_type=2 2 2 2 2 2
left_child=1 2 -1 -3 5 -2
right_child=4 3 -4 -5 -6 -7
leaf_value=-0.00079575742882399814 0 -0.00063004568168703991 0.0015055143767356346 -0.0052604831291445048 -0.00093296230835296801 0.0031220749298222343
leaf_weight=980 45 46 345 88 31 256
leaf_count=980 45 46 345 88 31 256
internal_value=0 -0.000527295 -0.000183773 -0.00379744 0.0022475 0.00263132
internal_weight=0 1459 1325 134 332 301
internal_count=1791 1459 1325 134 332 301
is_linear=0
shrinkage=0.00704049


Tree=99
num_leaves=8
num_cat=0
split_feature=3 69 76 40 50 19 62
split_gain=41.6865 22.3781 24.5767 19.0734 15.6435 3.87902 2.88287
threshold=20.250000000000004 4.1000000000000005 6.1950000000000012 31.250000000000004 1.0000000180025095e-35 0.65000000000000002 2.5000000000000004
decision_type=2 2 8 2 2 2 2
left_child=3 5 -3 4 -1 -2 -5
right_child=1 2 -4 6 -6 -7 -8
leaf_value=-0.0014823198564100661 0 0.0022941978642647192 -2.1588981963454147e-05 -0.0010113850133523763 0.00075424620179154016 -0.0036047334972011411 -0.0054390627451748391
leaf_weight=518 33 520 378 20 210 53 59
leaf_count=518 33 520 378 20 210 53 59
internal_value=0 0.000959669 0.00130056 -0.00119898 -0.000813899 -0.00240273 -0.0045327
internal_weight=0 984 898 807 728 86 79
internal_count=1791 984 898 807 728 86 79
is_linear=0
shrinkage=0.00704049


Tree=100
num_leaves=8
num_cat=0
split_feature=3 17 72 42 50 73 73
split_gain=41.1259 22.8552 18.372 17.7133 10.3007 9.16984 6.35205
threshold=18.700000000000006 2.0500000000000003 79.245000000000019 5.2750000000000012 1.0000000180025095e-35 77.950000000000003 77.950000000000003
decision_type=2 2 2 2 2 2 2
left_child=2 5 4 -3 -1 -2 -4
right_child=1 3 6 -5 -6 -7 -8
leaf_value=-0.0028209534673258102 0.0032106113059894282 0.0010528935735184056 0.00021576481701946536 -0.0011464534805641889 0 -0.0002456781916360473 -0.0032760120217406978
leaf_weight=332 228 511 310 277 70 35 28
leaf_count=332 228 511 310 277 70 35 28
internal_value=0 0.00088199 -0.00128451 0.000258282 -0.00230261 0.00268628 -2.34978e-05
internal_weight=0 1051 740 788 402 263 338
internal_count=1791 1051 740 788 402 263 338
is_linear=0
shrinkage=0.00704049


Tree=101
num_leaves=7
num_cat=0
split_feature=3 60 50 3 71 1
split_gain=40.7965 31.102 20.2754 13.4373 8.635 8.10827
threshold=39.850000000000001 22.915000000000003 1.0000000180025095e-35 27.950000000000003 4.4500000000000011 53.850000000000009
decision_type=2 2 2 2 2 2
left_child=1 3 -3 -1 -2 -6
right_child=4 2 -4 -5 5 -7
leaf_value=-0.0022359218952957257 -0.0013435141846295034 -0.00043604015175637538 0.0018718844140273281 0 0.0033864605175676957 0.00070399372096012676
leaf_weight=495 25 501 296 167 206 101
leaf_count=495 25 501 296 167 206 101
internal_value=0 -0.000519941 0.000399877 -0.0016529 0.00221425 0.00255916
internal_weight=0 1459 797 662 332 307
internal_count=1791 1459 797 662 332 307
is_linear=0
shrinkage=0.00704049


Tree=102
num_leaves=7
num_cat=0
split_feature=3 40 50 62 40 41
split_gain=40.2223 30.7046 26.2647 10.131 8.5598 8.12026
threshold=39.850000000000001 31.250000000000004 1.0000000180025095e-35 2.5000000000000004 31.250000000000004 26.500000000000004
decision_type=2 2 2 2 2 2
left_child=1 2 -1 -3 5 -2
right_child=4 3 -4 -5 -6 -7
leaf_value=-0.00077746134568778787 0 -0.00061712888516773326 0.0014758722341418281 -0.0051711586366833037 -0.00094480743986853307 0.0030644157036920799
leaf_weight=980 45 46 345 88 31 256
leaf_count=980 45 46 345 88 31 256
internal_value=0 -0.00051622 -0.000177959 -0.00373435 0.00219866 0.00257868
internal_weight=0 1459 1325 134 332 301
internal_count=1791 1459 1325 134 332 301
is_linear=0
shrinkage=0.00704049


Tree=103
num_leaves=8
num_cat=0
split_feature=3 17 72 42 50 36 36
split_gain=39.9589 22.3742 17.852 17.323 9.9195 6.22658 5.48436
threshold=18.700000000000006 2.0500000000000003 79.245000000000019 5.2750000000000012 1.0000000180025095e-35 26.500000000000004 30.500000000000004
decision_type=2 2 2 2 2 2 2
left_child=2 6 4 -3 -1 -4 -2
right_child=1 3 5 -5 -6 -7 -8
leaf_value=-0.0027783443027552895 0.0030664151081296817 0.0010380537727172415 0.0013771210751360498 -0.0011369465581314673 0 -0.00069911693169762623 0
leaf_weight=332 226 511 102 277 70 236 37
leaf_count=332 226 511 102 277 70 236 37
internal_value=0 0.000869333 -0.0012662 0.000252001 -0.0022698 -2.24469e-05 0.00265452
internal_weight=0 1051 740 788 402 338 263
internal_count=1791 1051 740 788 402 338 263
is_linear=0
shrinkage=0.00704049


Tree=104
num_leaves=8
num_cat=0
split_feature=3 42 76 78 36 83 76
split_gain=39.4194 23.1597 38.6216 19.1623 16.9834 9.36152 8.83078
threshold=20.250000000000004 5.2750000000000012 6.495000000000001 1.9600000000000002 30.500000000000004 5.5000000000000009 6.535000000000001
decision_type=2 2 8 8 2 2 10
left_child=3 2 -2 6 -3 -5 -1
right_child=1 4 -4 5 -6 -7 -8
leaf_value=0.00089905137426552774 0.0031392989115818226 0.00014672644771942256 -0.00036999443827108019 -0.002504603163128553 -0.0040092640362821954 0.00012740207580634117 -0.0015004667938707974
leaf_weight=228 386 294 247 400 57 66 113
leaf_count=228 386 294 247 400 57 66 113
internal_value=0 0.000932966 0.00174322 -0.00116616 -0.000480043 -0.0020955 5.42324e-05
internal_weight=0 984 633 807 351 466 341
internal_count=1791 984 633 807 351 466 341
is_linear=0
shrinkage=0.00704049


Tree=105
num_leaves=7
num_cat=0
split_feature=3 60 78 69 71 54
split_gain=39.0333 31.4979 19.9305 16.0224 11.6167 11.2388
threshold=35.95000000000001 24.130000000000006 1.4950000000000003 5.2800000000000002 4.4500000000000011 1.0000000180025095e-35
decision_type=2 2 8 2 2 2
left_child=1 2 -1 -3 -2 -6
right_child=4 3 -4 -5 5 -7
leaf_value=0.0021325346845028374 -0.0021121461125545773 0.0010837937686539879 -0.0019861010497159363 -0.0016756344597667302 0.00078614281804692402 0.0033023517880024812
leaf_weight=60 30 517 657 127 186 214
leaf_count=60 30 517 657 127 186 214
internal_value=0 -0.000596964 -0.00161781 0.000513313 0.00183619 0.00217469
internal_weight=0 1361 717 644 430 400
internal_count=1791 1361 717 644 430 400
is_linear=0
shrinkage=0.00704049


Tree=106
num_leaves=7
num_cat=0
split_feature=40 3 78 62 54 3
split_gain=38.7853 36.7642 21.617 14.6289 8.80127 0.712854
threshold=31.250000000000004 35.95000000000001 1.6950000000000001 2.5000000000000004 1.0000000180025095e-35 28.950000000000003
decision_type=2 2 8 2 2 2
left_child=1 2 -1 5 -3 -2
right_child=3 4 -4 -5 -6 -7
leaf_value=0.0010789609447560504 -0.001097826044474038 0.00086044085954863157 -0.00091384946857871478 -0.0049287938961537284 0.0031606236343946787 4.8782006845815257e-05
leaf_weight=392 34 171 842 102 221 29
leaf_count=392 34 171 842 102 221 29
internal_value=0 0.000317402 -0.000267077 -0.00326471 0.00220047 -0.000301403
internal_weight=0 1626 1234 165 392 63
internal_count=1791 1626 1234 165 392 63
is_linear=0
shrinkage=0.00704049


Tree=107
num_leaves=8
num_cat=0
split_feature=3 17 40 42 78 73 42
split_gain=38.296 21.8966 17.0424 16.7193 12.7693 8.91119 0.435364
threshold=18.700000000000006 2.0500000000000003 31.250000000000004 5.2750000000000012 1.6950000000000001 77.950000000000003 5.2750000000000012
decision_type=2 2 2 2 10 2 2
left_child=2 5 4 -3 -1 -2 -4
right_child=1 3 6 -5 -6 -7 -8
leaf_value=0.0006227620399538922 0.0031348349213998726 0.0010130970772848679 -0.0022840136676743634 -0.0011237696985481943 -0.001479054415795255 -0.0002711083981183555 -0.0053133487404088912
leaf_weight=193 228 511 29 277 469 35 49
leaf_count=193 228 511 29 277 469 35 49
internal_value=0 0.000851333 -0.0012393 0.000240449 -0.000840714 0.00261721 -0.00440455
internal_weight=0 1051 740 788 662 263 78
internal_count=1791 1051 740 788 662 263 78
is_linear=0
shrinkage=0.00704049


Tree=108
num_leaves=8
num_cat=0
split_feature=3 60 78 69 23 75 1
split_gain=37.7704 29.3381 20.305 15.9031 8.40615 7.41365 4.68055
threshold=39.850000000000001 24.130000000000006 1.4950000000000003 5.2800000000000002 6.2250000000000005 0.085000000000000006 45.150000000000013
decision_type=2 2 8 2 2 2 2
left_child=1 2 -1 -3 5 -2 -6
right_child=4 3 -4 -5 6 -7 -8
leaf_value=0.0022730566816777887 0.00068211115108577226 0.0010926726328509295 -0.0017931291976909258 -0.0015955611098887837 0.0022087798819568267 0.0035685278725977225 -0.0013790137831810193
leaf_weight=63 80 550 714 132 30 177 45
leaf_count=63 80 550 714 132 30 177 45
internal_value=0 -0.000500206 -0.00144162 0.000547528 0.00213063 0.00273597 0
internal_weight=0 1459 777 682 332 257 75
internal_count=1791 1459 777 682 332 257 75
is_linear=0
shrinkage=0.00704049


Tree=109
num_leaves=7
num_cat=0
split_feature=40 3 50 62 76 3
split_gain=37.846 35.6177 25.0765 14.1925 8.71049 0.680912
threshold=31.250000000000004 35.95000000000001 1.0000000180025095e-35 2.5000000000000004 6.495000000000001 28.950000000000003
decision_type=2 2 2 2 8 2
left_child=1 2 -1 5 -3 -2
right_child=3 4 -4 -5 -6 -7
leaf_value=-0.0008692778512341279 -0.0010769821517667081 0.0029931547036001942 0.0014077608480528056 -0.0048643302266619714 0.00064344513601994127 2.4888205644175584e-05
leaf_weight=912 34 247 322 102 145 29
leaf_count=912 34 247 322 102 145 29
internal_value=0 0.000313713 -0.00026138 -0.00322476 0.00216723 -0.000301154
internal_weight=0 1626 1234 165 392 63
internal_count=1791 1626 1234 165 392 63
is_linear=0
shrinkage=0.00704049


Tree=110
num_leaves=7
num_cat=0
split_feature=40 3 50 62 76 3
split_gain=37.3165 35.1255 24.7259 13.9919 8.57793 0.672794
threshold=31.250000000000004 35.95000000000001 1.0000000180025095e-35 2.5000000000000004 6.495000000000001 28.950000000000003
decision_type=2 2 2 2 8 2
left_child=1 2 -1 5 -3 -2
right_child=3 4 -4 -5 -6 -7
leaf_value=-0.00086315778376988355 -0.0010694020196121709 0.0029720823043265115 0.0013978498351014585 -0.0048300864810851508 0.00063891529392338887 2.4713116993279185e-05
leaf_weight=912 34 247 322 102 145 29
leaf_count=912 34 247 322 102 145 29
internal_value=0 0.000311578 -0.000259443 -0.00320206 0.00215228 -0.000297143
internal_weight=0 1626 1234 165 392 63
internal_count=1791 1626 1234 165 392 63
is_linear=0
shrinkage=0.00704049


Tree=111
num_leaves=8
num_cat=0
split_feature=3 50 62 36 72 50 47
split_gain=37.0495 21.3704 19.1251 18.6654 16.9337 9.12339 6.02697
threshold=18.700000000000006 1.0000000180025095e-35 2.5000000000000004 30.500000000000004 79.245000000000019 1.0000000180025095e-35 1.5000000000000002
decision_type=2 2 2 2 2 2 2
left_child=4 2 -2 -3 5 -1 -6
right_child=1 3 -4 -5 6 -7 -8
leaf_value=-0.0026833870463042931 0.00076869203971492749 0.0035157859167212913 -0.0021668077802437773 -0.0025943341739045863 -0.0014258992160759141 0 0.00058663449501608102
leaf_weight=332 696 201 129 25 108 70 230
leaf_count=332 696 201 129 25 108 70 230
internal_value=0 0.000837642 0.000289143 0.00276489 -0.00121869 -0.00219587 -6.35822e-06
internal_weight=0 1051 825 226 740 402 338
internal_count=1791 1051 825 226 740 402 338
is_linear=0
shrinkage=0.00704049


Tree=112
num_leaves=7
num_cat=0
split_feature=40 3 50 62 76 20
split_gain=36.5676 34.3991 24.0566 13.6979 8.43879 0.661359
threshold=31.250000000000004 35.95000000000001 1.0000000180025095e-35 2.5000000000000004 6.495000000000001 4.5500000000000007
decision_type=2 2 2 2 8 2
left_child=1 2 -1 5 -3 -2
right_child=3 4 -4 -5 -6 -7
leaf_value=-0.00085208135695039858 0.00020181681110007638 0.002943270044516378 0.0013779787973908322 -0.0047806882410562444 0.00062811041270658904 -0.00094241965965129843
leaf_weight=912 21 247 322 102 145 42
leaf_count=912 21 247 322 102 145 42
internal_value=0 0.000308515 -0.000256442 -0.00316969 0.00213013 -0.000292339
internal_weight=0 1626 1234 165 392 63
internal_count=1791 1626 1234 165 392 63
is_linear=0
